
#include <eml_net.h>
static const float model_layer_0_biases[64] = {0.094815f, -0.194826f, -1.110700f, -0.019541f, 0.144718f, 0.137944f, 0.000000f, -0.006627f, 0.010054f, -0.036716f, 0.027826f, 0.000000f, 0.319173f, -0.251276f, 0.000000f, 0.013200f, 0.000000f, 0.000000f, -0.618584f, -0.035203f, 0.000000f, 0.000000f, 1.549082f, -0.323691f, 0.171078f, -0.022291f, -0.481964f, 0.453553f, -0.018567f, -0.060615f, 0.696970f, 0.000000f, -0.511146f, 0.698461f, -0.978467f, 1.306514f, -0.016060f, -0.896930f, -0.015957f, -0.126948f, -1.114632f, -0.000064f, 0.053560f, -0.110638f, 0.000000f, 0.000000f, -0.000671f, 0.313874f, -0.244958f, 0.000000f, -0.271784f, 0.000000f, 0.000000f, -0.343214f, -0.016361f, -0.469919f, 0.000000f, -0.338639f, -0.016359f, -0.224206f, 0.000000f, -0.016803f, -0.102546f, -1.021745f};
static const float model_layer_0_weights[2560] = {0.013282f, -0.289810f, -0.176209f, 0.093415f, -0.067277f, 0.143179f, 0.017075f, -0.123417f, -0.336097f, -0.259713f, -0.072364f, -0.223044f, 0.299341f, -0.078406f, 0.180583f, -0.283246f, -0.141099f, -0.231962f, -0.145812f, 0.102502f, 0.101973f, 0.181269f, 0.178537f, 0.246908f, -0.381865f, 0.011506f, -0.311111f, -0.239125f, 0.133944f, -0.141539f, -0.059733f, 0.215349f, -0.040139f, -0.290994f, -0.067537f, -0.207587f, -0.084250f, -0.119655f, -0.219532f, 0.059498f, -0.214362f, -0.122679f, -0.330208f, -0.208322f, 0.188499f, -0.056705f, -0.155746f, -0.262359f, 0.172701f, 0.185190f, 0.066459f, -0.173178f, -0.156796f, -0.186698f, -0.102099f, -0.134993f, 0.160947f, 0.042773f, 0.124658f, -0.174260f, 0.042623f, -0.209022f, 0.112893f, 0.198692f, -0.187808f, -0.102263f, 0.022905f, 0.168512f, -0.084080f, -0.214876f, 0.200567f, -0.228089f, 0.002403f, -0.050956f, 0.187298f, -0.125824f, -0.212160f, 0.161490f, -0.095698f, -0.311237f, -0.151655f, 0.181667f, -0.247485f, 0.133990f, 0.219009f, -0.144700f, -3.257599f, -0.401219f, -0.638786f, -0.308445f, -0.203565f, 0.321612f, -0.036973f, 0.098580f, -0.117619f, 0.032848f, -0.328020f, -1.754134f, 0.141450f, -2.887995f, -0.021279f, 0.081868f, 0.226034f, -0.105865f, -0.232549f, 0.472896f, 0.021856f, -0.178918f, -0.115128f, 0.118502f, -0.089886f, 0.382105f, 0.197775f, 0.211435f, -0.098720f, 0.212989f, 0.026068f, 0.520162f, 0.170221f, 0.300872f, 0.026032f, 0.050869f, 0.060105f, 0.275675f, 0.076486f, -0.286735f, -0.158887f, 0.005912f, -0.077652f, 0.135773f, 0.090137f, 0.002055f, -0.411392f, -0.140535f, 0.058004f, 0.044762f, -0.103631f, -0.179554f, -0.399493f, 0.231484f, -0.060779f, -0.184036f, -0.010391f, -0.096584f, 0.066326f, 0.151966f, 0.307926f, 0.118999f, -0.108187f, 0.173987f, -0.179848f, 0.213961f, 0.002246f, -0.217875f, -0.039156f, 0.051160f, -0.316650f, -0.143505f, -0.322280f, -0.183759f, 0.253138f, -0.309764f, 0.125791f, 0.126605f, 0.141195f, 0.000816f, -0.152829f, -0.017941f, 0.345394f, -0.236764f, -0.002071f, -0.180424f, -0.123792f, 0.116793f, 0.118302f, 0.159086f, -0.251605f, -0.072013f, -0.062844f, 0.106238f, -0.125386f, -0.032005f, -0.080490f, -0.063122f, 0.077021f, -0.093916f, -0.009059f, 0.086421f, 0.130061f, -0.184334f, -0.226377f, 0.417027f, -0.202376f, 0.099131f, 0.066674f, -0.021896f, 0.194968f, -0.216779f, 0.131097f, -0.064891f, 0.130270f, 0.119174f, -0.175456f, 0.014452f, 0.069155f, 0.099480f, -0.197798f, -0.180854f, -0.054712f, -0.075089f, -0.159840f, -0.206951f, -0.092386f, -0.042343f, 0.136863f, 0.126757f, -0.205028f, 0.080036f, 0.064433f, 0.029190f, 0.170345f, 0.000944f, -0.167681f, -0.016851f, -0.126949f, -0.057745f, 0.146972f, 0.310840f, 0.149113f, -0.256144f, 0.144871f, -0.035527f, 0.244953f, -0.076901f, -0.171354f, 0.063749f, 0.047919f, 0.123304f, 0.203691f, -0.045405f, 0.058269f, -0.165357f, -0.055247f, -0.038717f, 0.106434f, -0.094232f, -0.231597f, -0.107931f, -0.090088f, 0.005507f, 0.099471f, -0.037095f, 0.100308f, -0.010898f, -0.001176f, 0.079471f, -0.340025f, -0.009005f, -0.038469f, -0.183717f, -0.378091f, -0.088555f, -0.139909f, 0.152499f, -0.104137f, -0.338321f, -0.430035f, 0.072127f, -0.174097f, 0.043106f, -0.022087f, 0.162968f, -0.041870f, 0.229075f, 0.217387f, 0.092476f, 0.018058f, 0.040541f, -0.190735f, -0.200961f, -0.418272f, -0.274969f, -0.203577f, -0.324353f, 0.028455f, -0.130653f, -0.070972f, -0.180380f, 0.152906f, -0.245463f, 0.172108f, 0.129533f, -0.140759f, 0.139510f, -0.108300f, -0.143825f, -0.271797f, -0.038119f, -0.266308f, -0.070368f, -0.017073f, -0.061388f, -0.186231f, 0.144754f, -0.004163f, 0.090866f, -0.045313f, 0.145462f, -0.111785f, -0.095536f, 0.157522f, -0.110308f, 0.042917f, -0.167155f, -0.146510f, 0.012826f, -0.164004f, -0.008963f, 0.176649f, -0.160037f, -0.011801f, 0.075936f, 0.166520f, -0.222609f, -0.121039f, -0.411174f, 0.215010f, 0.173681f, -0.054412f, -0.260964f, 0.062178f, -0.172589f, -0.523375f, 0.172776f, 0.014946f, -0.340056f, -0.053910f, -0.202134f, 0.073529f, 0.147087f, 0.126217f, 0.059601f, -3.910810f, -0.458675f, -0.357536f, 0.124656f, 0.087913f, 0.379729f, -0.019001f, 0.180747f, -0.358849f, 0.122066f, -0.459265f, -1.832127f, 0.030805f, -2.507867f, -0.070602f, 0.054044f, 0.094645f, -0.048097f, 0.098014f, 0.389733f, -0.034843f, -0.105841f, -0.122631f, 0.049887f, -0.177200f, 0.048037f, 0.012290f, -0.043086f, 0.228211f, 0.012172f, 0.139134f, 0.589937f, -0.012062f, -0.024210f, 0.049490f, -0.310756f, 0.209706f, 0.146784f, 0.125942f, -0.216838f, 0.153062f, -0.018671f, -0.337892f, 0.088567f, 0.241847f, -0.226086f, -0.377802f, -0.215089f, 0.136963f, -0.025984f, 0.010261f, 0.013787f, 0.070349f, -0.186703f, -0.255742f, -0.055123f, 0.036922f, -0.301573f, -0.102290f, -0.130095f, 0.217793f, 0.201652f, -0.192372f, -0.141383f, -0.275376f, 0.116594f, -0.061611f, 0.043993f, 0.101759f, 0.140495f, -0.085056f, 0.124925f, -0.341103f, -0.007201f, 0.058219f, -0.419418f, 0.297790f, 0.101073f, 0.066996f, -0.019705f, 0.210042f, 0.102553f, -0.088825f, -0.456459f, -0.027507f, -0.187992f, 0.116804f, -0.102411f, 0.050193f, 0.171955f, 0.172199f, -0.154835f, -0.290687f, -0.189165f, -0.014625f, 0.100001f, -0.190602f, -0.168968f, -0.081229f, -0.254521f, -0.108509f, 0.028163f, 0.138823f, -0.098512f, -0.185723f, 0.180139f, 0.101069f, -0.218418f, 0.140810f, 0.195062f, -0.004323f, 0.036519f, 0.024301f, 0.231906f, 0.179586f, -0.074927f, 0.179843f, -0.158797f, 0.166193f, -0.307422f, -0.121435f, 0.026793f, -0.117136f, -0.230999f, 0.009393f, -0.026427f, -0.194943f, -0.036769f, -0.190364f, -0.007086f, 0.066556f, 0.133071f, 0.103909f, 0.087035f, -0.094173f, 0.062766f, 0.229317f, -0.048787f, -0.013934f, 0.125457f, 0.007831f, -0.109971f, -0.158618f, 0.105357f, 0.094921f, -0.026564f, -0.033203f, 0.104196f, -0.213572f, -0.170771f, -0.028771f, -0.178512f, -0.158716f, 0.023645f, -0.248180f, 0.023255f, -0.121692f, -0.066220f, -0.219051f, 0.134898f, 0.118438f, -0.075354f, 0.076366f, 0.012337f, -0.243493f, 0.088955f, -0.167237f, -0.059506f, 0.015253f, 0.076761f, -0.107502f, -0.035483f, -0.177260f, -0.191142f, -0.299137f, 0.187740f, 0.044419f, 0.147384f, -0.006419f, 0.075979f, -0.379274f, -0.076090f, 0.243927f, -0.209950f, -0.030691f, -0.037468f, 0.114331f, 0.119317f, -0.021233f, 0.117950f, 0.160531f, 0.194063f, -0.012370f, 0.229798f, -0.235253f, -0.030531f, -0.253636f, -0.359223f, -0.086415f, -0.181227f, 0.040446f, -0.180623f, 0.205395f, -0.339693f, -0.120524f, -0.163574f, 0.196519f, -0.184970f, -0.125589f, -0.128617f, -0.218196f, 0.050991f, -0.363765f, -0.082586f, 0.083948f, -0.141660f, -0.062005f, 0.061418f, -0.070734f, 0.176020f, 0.136301f, 0.161726f, 0.141345f, -0.048553f, -0.066955f, -0.339345f, 0.119998f, -0.144572f, -0.222949f, -0.296510f, 0.144635f, 0.100157f, 0.153666f, 0.169827f, -0.139065f, 0.118911f, -0.012800f, -0.186313f, 0.107517f, -0.489044f, -0.230216f, 0.100211f, 0.010316f, -0.330376f, 0.071145f, -0.211518f, -0.575310f, -0.029433f, 0.176821f, -0.309624f, -0.056451f, -0.116978f, -0.084203f, 0.073023f, 0.143751f, -0.064952f, -4.487517f, -0.426015f, -0.572402f, -0.177953f, -0.071369f, 0.278612f, -0.131859f, -0.041177f, -0.161789f, -0.238987f, -0.305437f, -1.764099f, 0.047051f, -2.740452f, -0.001735f, 0.072296f, -0.163638f, 0.025913f, -0.034260f, 0.116111f, -0.196108f, -0.065366f, 0.079772f, 0.198613f, -0.147132f, 0.154368f, 0.009093f, 0.000035f, -0.156103f, -0.032610f, -0.168889f, 0.528480f, -0.255871f, 0.042463f, 0.004923f, -0.162625f, -0.176960f, 0.003970f, 0.001964f, -0.053351f, 0.042155f, 0.053668f, -0.067996f, 0.026931f, 0.240007f, 0.040130f, -0.053859f, 0.075867f, -0.008655f, -0.084736f, -0.392880f, -0.238178f, -0.281866f, -0.216401f, -0.306861f, 0.131574f, 0.212665f, 0.028701f, 0.170623f, -0.151656f, -0.208737f, 0.117812f, 0.084778f, -0.060227f, -0.093847f, 0.153852f, -0.251271f, -0.000217f, -0.118628f, 0.028767f, 0.007395f, -0.209224f, -0.436292f, 0.055465f, 0.263295f, -0.146765f, 0.269845f, 0.044548f, 0.224706f, 0.029913f, 0.185604f, -0.256801f, 0.145904f, -0.181727f, -0.135247f, 0.088489f, 0.098831f, -0.003920f, 0.174398f, -0.188573f, 0.045231f, 0.184867f, -0.240295f, 0.229849f, 0.011685f, 0.198064f, 0.080803f, -0.202944f, -0.190409f, 0.126071f, -0.179852f, 0.020898f, -0.008238f, 0.164497f, 0.118302f, 0.135952f, 0.132853f, 0.012710f, -0.235318f, 0.186442f, 0.193362f, 0.109450f, -0.131357f, 0.055186f, 0.087001f, 0.070720f, -0.106937f, 0.074247f, -0.067382f, 0.081505f, -0.149652f, -0.262170f, 0.158799f, -0.073929f, 0.135578f, 0.143985f, -0.155539f, 0.201469f, -0.134716f, -0.336663f, 0.146746f, -0.174617f, 0.005958f, 0.182884f, -0.267577f, -0.063635f, 0.225471f, 0.170606f, 0.101847f, 0.074154f, 0.100002f, 0.158111f, -0.049721f, 0.080401f, -0.101911f, 0.108052f, -0.161615f, 0.229005f, 0.184103f, 0.037586f, -0.155340f, -0.057210f, -0.242210f, -0.177779f, -0.255140f, 0.004622f, -0.242712f, -0.076130f, -0.138154f, -0.083413f, 0.098492f, -0.037358f, -0.223220f, 0.199328f, 0.104013f, -0.277347f, -0.239004f, 0.044611f, -0.097842f, -0.019476f, -0.036023f, -0.048944f, 0.175406f, -0.017287f, -0.131741f, -0.135490f, 0.145262f, 0.012852f, 0.084843f, 0.024485f, -0.419945f, -0.094536f, -0.018181f, 0.164184f, -0.211118f, -0.210380f, 0.234911f, -0.147209f, -0.160075f, -0.227400f, 0.227795f, 0.172231f, -0.078563f, -0.127350f, -0.464066f, 0.136053f, -0.273779f, -0.421384f, -0.205374f, 0.190413f, -0.150253f, -0.207968f, -0.195748f, 0.125930f, 0.088325f, -0.339494f, 0.010738f, -0.196438f, -0.251610f, 0.173123f, -0.021056f, 0.193981f, -0.012040f, 0.022088f, 0.128394f, 0.132070f, -0.189073f, -0.276330f, 0.141413f, -0.115149f, 0.010598f, -0.217867f, 0.204760f, 0.059184f, -0.169638f, -0.339188f, -0.167739f, -0.145370f, -0.183829f, 0.028763f, -0.068535f, 0.049853f, 0.082787f, 0.052214f, -0.104419f, 0.257112f, 0.077366f, 0.008795f, -0.135033f, -0.376838f, 0.202095f, 0.055492f, -0.156738f, -0.252043f, -0.000033f, -0.192697f, -0.696696f, 0.194476f, -0.191199f, -0.243949f, 0.031491f, -0.197577f, 0.102925f, 0.195337f, -0.168897f, 0.200295f, -4.923253f, -0.092111f, -0.614024f, -0.039301f, -0.080109f, 0.141132f, 0.102639f, 0.097744f, -0.008122f, -0.206367f, -0.133287f, -2.160936f, -0.018633f, -2.940976f, -0.113076f, 0.443753f, -0.091446f, -0.113044f, -0.170567f, 0.353270f, 0.179940f, -0.225770f, -0.063675f, 0.138677f, 0.013080f, -0.008984f, 0.051873f, -0.023706f, 0.119349f, 0.199496f, -0.236407f, 0.565170f, 0.213888f, 0.452689f, 0.022733f, -0.020432f, -0.175954f, 0.263522f, -0.013572f, 0.010550f, 0.127143f, 0.079167f, -0.318744f, -0.340374f, 0.093768f, -0.265174f, 0.033694f, -0.269673f, -0.176916f, 0.113735f, -0.163058f, -0.270478f, -0.242860f, 0.145310f, -0.316563f, -0.083708f, -0.167957f, 0.066499f, -0.049130f, 0.139569f, -0.119024f, -0.044030f, 0.218609f, -0.073962f, -0.061156f, 0.233319f, -0.126406f, 0.063466f, 0.180360f, -0.009451f, 0.084957f, 0.026607f, -0.389939f, -0.044692f, 0.254902f, -0.312590f, 0.052245f, 0.104782f, -0.062397f, -0.314381f, 0.114677f, 0.157388f, 0.161647f, -0.234547f, -0.089814f, 0.062106f, 0.156064f, -0.189640f, -0.117109f, 0.062140f, 0.025256f, -0.188429f, 0.062551f, -0.205676f, -0.212134f, -0.066371f, 0.166811f, -0.040161f, 0.193956f, 0.021018f, 0.186033f, 0.087964f, -0.108052f, 0.165559f, -0.063081f, 0.318360f, 0.137455f, -0.209228f, 0.102645f, 0.201769f, 0.011773f, -0.121740f, -0.185121f, -0.227666f, 0.070653f, 0.081833f, 0.048149f, 0.004740f, -0.000788f, -0.313568f, -0.088274f, 0.162933f, -0.161381f, -0.005778f, -0.220426f, 0.010390f, -0.093158f, -0.029470f, -0.114679f, 0.010928f, 0.143862f, -0.002485f, 0.142161f, -0.120729f, -0.149093f, 0.185699f, 0.157718f, -0.138112f, 0.031418f, 0.218116f, 0.112258f, 0.186189f, -0.187807f, 0.060908f, 0.168282f, 0.003767f, 0.194480f, -0.024060f, 0.100467f, 0.054092f, 0.152321f, -0.052876f, 0.085971f, 0.156013f, -0.005688f, -0.165351f, 0.014512f, -0.169513f, 0.236853f, 0.073300f, -0.139110f, -0.034424f, -0.172057f, 0.100408f, 0.011270f, 0.047890f, -0.090712f, 0.167366f, -0.022744f, -0.143095f, -0.349384f, 0.083992f, -0.259674f, 0.083218f, -0.098631f, 0.249038f, -0.111693f, 0.078607f, -0.105888f, 0.059991f, -0.118186f, -0.185831f, 0.255709f, -0.127360f, 0.019131f, 0.005022f, -0.239585f, -0.185648f, -0.070819f, -0.045477f, 0.026698f, 0.038332f, 0.279742f, 0.192172f, -0.376633f, -0.277087f, -0.055074f, -0.304094f, -0.044321f, -0.120215f, 0.154254f, -0.170655f, 0.175862f, -0.005612f, -0.244243f, 0.058079f, -0.051824f, -0.273582f, 0.074318f, -0.221315f, -0.302394f, 0.199546f, -0.361816f, -0.280085f, -0.156186f, -0.203572f, -0.066927f, -0.090668f, 0.025013f, -0.068874f, 0.007738f, 0.140953f, 0.152379f, 0.078240f, -0.049234f, 0.082826f, 0.155876f, -0.433022f, 0.082179f, -0.177587f, -0.082774f, -0.227511f, -0.031748f, 0.092416f, 0.032481f, 0.141342f, 0.113173f, 0.119913f, 0.107795f, -0.161207f, -0.233670f, -0.019927f, 0.072814f, -0.240218f, 0.243844f, -0.229113f, -0.420742f, 0.363674f, -0.230140f, -0.034827f, 0.129672f, -0.144606f, 0.144910f, -0.135738f, -0.082244f, 0.132748f, -5.622140f, -0.334831f, -0.243823f, -0.251427f, -0.131887f, 0.078988f, -0.089753f, 0.032871f, -0.227882f, -0.095122f, 0.014330f, -2.114483f, -0.251427f, -2.866612f, -0.010510f, 0.029685f, 0.007553f, 0.107578f, 0.106438f, 0.459070f, 0.192763f, 0.058439f, 0.210556f, -0.215291f, -0.223823f, 0.184101f, -0.152452f, -0.068530f, -0.016422f, 0.082420f, -0.015015f, 0.254024f, -0.030866f, 0.347920f, -0.040342f, -0.168116f, 0.170176f, -0.016799f, -0.155299f, -0.083777f, 0.094874f, -0.007099f, -0.209248f, -0.014448f, 0.205432f, 0.015870f, 0.107801f, -0.005238f, 0.118429f, -0.194619f, -0.289171f, -0.075848f, -0.233019f, 0.152283f, -0.290282f, 0.071197f, 0.076291f, -0.188022f, 0.049270f, -0.095212f, -0.129346f, 0.152710f, 0.107214f, -0.009345f, -0.098303f, -0.212598f, 0.264410f, -0.074909f, -0.121034f, -0.225380f, -0.039991f, 0.038153f, -0.288779f, 0.008529f, -0.025723f, -0.310534f, 0.358837f, -0.292909f, 0.006933f, -0.234756f, -0.102077f, -0.024956f, -0.016958f, -0.125324f, -0.283747f, -0.146514f, -0.070694f, -0.217699f, -0.071002f, -0.151664f, 0.025061f, -0.004520f, -0.332800f, -0.120952f, -0.152365f, 0.092895f, 0.062735f, -0.307588f, -0.119887f, -0.242836f, -0.245753f, -0.192307f, 0.214055f, -0.043922f, -0.015244f, 0.107742f, -0.225838f, 0.146516f, 0.023612f, -0.186417f, -0.266471f, 0.151516f, -0.151028f, -0.030558f, -0.233060f, 0.104161f, 0.167745f, -0.197569f, -0.147409f, 0.010859f, -0.068691f, -0.077255f, 0.188592f, -0.131055f, -0.180595f, -0.134046f, 0.159056f, -0.177403f, 0.179768f, 0.099868f, -0.092642f, -0.121505f, -0.062429f, 0.230021f, -0.019280f, 0.033026f, 0.152299f, 0.012405f, -0.095337f, -0.031637f, -0.072929f, 0.141186f, 0.153913f, 0.021323f, -0.073328f, -0.119850f, 0.075126f, 0.015108f, -0.036874f, -0.117858f, -0.190611f, -0.231176f, -0.142633f, 0.122116f, 0.054090f, -0.211512f, 0.111717f, 0.064557f, -0.073998f, 0.038220f, -0.083656f, 0.159996f, -0.064301f, 0.278801f, -0.189492f, 0.071127f, -0.035643f, -0.161455f, -0.003868f, -0.112657f, 0.107943f, -0.117013f, 0.144543f, 0.005624f, -0.211686f, 0.069340f, -0.235333f, 0.117315f, 0.032420f, -0.207818f, -0.173485f, -0.065112f, 0.263391f, 0.053682f, 0.079492f, 0.091078f, 0.134841f, -0.069160f, 0.070583f, -0.084088f, -0.024571f, -0.038788f, 0.168140f, -0.155809f, 0.004883f, 0.115911f, -0.250173f, -0.175690f, -0.052189f, -0.177995f, -0.125536f, 0.014624f, 0.105260f, -0.109513f, 0.160056f, -0.247072f, -0.161033f, 0.033344f, -0.137159f, -0.147875f, -0.223342f, 0.142687f, -0.027297f, 0.101779f, -0.201347f, -0.198531f, 0.111035f, -0.050270f, -0.195930f, 0.198975f, -0.270324f, 0.064603f, -0.194698f, -0.274698f, 0.148457f, 0.049641f, 0.018714f, -0.237556f, -0.265873f, -0.122437f, 0.040126f, 0.129072f, -0.202874f, -0.018327f, 0.034766f, 0.353422f, 0.207220f, -0.286989f, -0.218160f, -0.231795f, 0.031645f, -0.018609f, 0.006034f, -0.244157f, -0.107142f, -0.099815f, -0.686464f, 0.221047f, 0.187824f, -0.128061f, -0.039768f, 0.122806f, 0.103279f, 0.216180f, -0.209648f, -0.153374f, -6.064355f, 0.058418f, -0.625181f, 0.117092f, -0.035648f, -0.147489f, -0.113795f, -0.003174f, -0.216120f, 0.098691f, 0.026484f, -2.015940f, 0.111247f, -2.737509f, -0.118729f, 0.399445f, -0.136422f, 0.342071f, 0.009141f, 0.321568f, 0.093532f, 0.054935f, 0.175950f, 0.074257f, 0.057069f, -0.109318f, 0.073975f, 0.223835f, 0.264515f, -0.211901f, -0.185869f, 0.213558f, -0.133892f, 0.000479f, 0.198446f, 0.039961f, -0.140471f, 0.072735f, 0.191053f, 0.122985f, 0.111584f, 0.077986f, 0.065466f, -0.334451f, -0.082366f, 0.183667f, -0.239417f, -0.235970f, -0.223361f, -0.224925f, -0.250189f, 0.118271f, -0.094503f, 0.066249f, -0.150113f, -0.078562f, 0.095548f, 0.018286f, -0.222444f, -0.175150f, 0.125599f, -0.045723f, -0.012773f, 0.201868f, 0.016471f, 0.197591f, -0.168594f, 0.056717f, 0.146966f, -0.194149f, 0.121660f, -0.199073f, -0.379566f, -0.083499f, 0.181936f, 0.147067f, 0.272397f, -0.179893f, 0.093605f, -0.188458f, -0.077379f, 0.164601f, -0.066443f, -0.367109f, 0.023553f, -0.069803f, 0.112478f, -0.000357f, 0.161162f, -0.262972f, -0.130065f, -0.062319f, -0.252302f, -0.195624f, -0.074842f, -0.122514f, -0.254073f, -0.348636f, -0.076898f, -0.122658f, 0.073129f, -0.216843f, -0.207526f, 0.154531f, 0.130233f, 0.054956f, -0.027472f, 0.142681f, 0.095986f, -0.178948f, -0.204382f, 0.055383f, -0.124678f, 0.004997f, 0.043094f, 0.052845f, -0.117389f, -0.135019f, -0.261455f, 0.085021f, 0.032936f, 0.084940f, 0.038029f, -0.192218f, 0.026230f, -0.061854f, -0.062488f, -0.183424f, 0.138529f, -0.282635f, 0.092320f, -0.113564f, -0.040162f, 0.294699f, 0.166015f, -0.284368f, -0.113778f, -0.219908f, 0.003007f, 0.082816f, -0.222058f, 0.041989f, -0.168576f, 0.109563f, -0.240340f, -0.041875f, -0.131281f, -0.178511f, 0.219201f, 0.079413f, 0.151913f, -0.173545f, -0.135859f, 0.040485f, -0.048515f, -0.068128f, 0.162094f, -0.184008f, -0.140766f, -0.039310f, 0.128368f, 0.167824f, 0.206049f, -0.061921f, -0.174691f, -0.098589f, -0.237183f, 0.067470f, 0.048061f, -0.099512f, -0.090698f, 0.046078f, -0.171542f, 0.113916f, 0.132349f, -0.103024f, 0.014973f, -0.227358f, -0.216794f, -0.345642f, -0.179751f, 0.201629f, 0.238492f, 0.019832f, -0.124913f, 0.027976f, -0.073906f, 0.150544f, -0.336916f, 0.195523f, -0.174230f, 0.094855f, 0.275749f, 0.240284f, -0.083862f, 0.039112f, -0.288312f, -0.325325f, -0.144520f, 0.038524f, -0.089055f, -0.203491f, -0.124994f, -0.187296f, -0.074070f, -0.063626f, -0.010352f, -0.020352f, -0.095190f, 0.188205f, 0.013249f, 0.213364f, 0.149477f, -0.114758f, 0.136340f, -0.102750f, 0.110658f, 0.022552f, -0.175249f, 0.240026f, -0.079872f, 0.115550f, 0.030902f, -0.253183f, -0.235291f, -0.385400f, -0.197359f, -0.330699f, 0.156008f, 0.046139f, 0.201693f, -0.235515f, -0.282761f, 0.236168f, -0.206418f, 0.031521f, 0.221767f, -0.151147f, -0.190733f, -0.641332f, -0.047319f, 0.100179f, -0.171788f, -0.301591f, -0.028273f, 0.149727f, -0.740430f, 0.300649f, 0.074406f, -0.181778f, -0.054777f, -0.023822f, 0.162720f, 0.088900f, -0.170233f, 0.139799f, -5.989898f, 0.004749f, -0.434389f, -0.094172f, 0.195134f, -0.151371f, -0.237905f, -0.083233f, -0.313043f, 0.046764f, -0.027760f, -2.112369f, -0.132359f, -2.980365f, -0.077014f, 0.461087f, -0.132556f, 0.221267f, 0.299841f, -0.063567f, -0.105071f, 0.118431f, 0.177462f, -0.061889f, 0.200054f, 0.281827f, -0.142905f, 0.129715f, 0.111817f, 0.004395f, -0.018006f, 0.301093f, 0.098430f, 0.529195f, -0.124749f, -0.013204f, -0.023960f, 0.116944f, -0.017507f, -0.215800f, 0.039554f, 0.046819f, -0.276469f, 0.079721f, 0.264957f, -0.048879f, 0.076070f, -0.143664f, 0.169207f, -0.039147f, -0.049307f, -0.315916f, 0.182061f, -0.081719f, -0.285070f, -0.010253f, -0.017434f, 0.063601f, -0.033420f, 0.144048f, -0.077324f, 0.003161f, 0.048814f, -0.159180f, 0.148112f, 0.211961f, -0.042395f, -0.056603f, -0.125015f, -0.110157f, -0.270423f, 0.079872f, -0.136356f, -0.238141f, -0.063317f, -0.256638f, 0.165944f, -0.200866f, -0.116325f, 0.093585f, 0.064919f, -0.233418f, -0.005828f, -0.244923f, -0.230312f, -0.269085f, -0.226764f, -0.025557f, -0.157280f, -0.171151f, -0.161515f, -0.140970f, 0.069000f, 0.126396f, 0.094895f, 0.046489f, 0.185102f, -0.078386f, 0.046833f, -0.230600f, 0.078229f, -0.118215f, -0.222990f, -0.031483f, -0.272482f, 0.188542f, 0.120890f, -0.101737f, 0.077111f, -0.255998f, 0.101103f, -0.145765f, 0.179758f, 0.087819f, 0.094342f, -0.193014f, 0.102749f, -0.152968f, -0.075622f, 0.106804f, -0.178014f, -0.155876f, -0.143403f, 0.218138f, 0.121156f, -0.053758f, 0.026150f, 0.034634f, -0.008450f, -0.119148f, 0.109845f, -0.275882f, 0.144118f, 0.043187f, 0.076498f, -0.025971f, 0.232010f, 0.068882f, -0.026856f, -0.188559f, -0.132265f, 0.082146f, 0.169272f, 0.134555f, -0.117733f, -0.191876f, 0.223647f, 0.221362f, -0.245885f, 0.095534f, 0.005418f, 0.227076f, 0.089884f, 0.154696f, 0.115711f, -0.203846f, -0.241959f, 0.057731f, -0.233698f, -0.283388f, -0.166561f, -0.128143f, -0.148702f, 0.229957f, -0.084215f, -0.052036f, 0.033614f, 0.168897f, -0.057889f, 0.172664f, -0.195767f, -0.080673f, -0.004354f, 0.158276f, -0.174350f, -0.087464f, -0.087805f, 0.226296f, -0.034819f, -0.368145f, 0.009348f, -0.067990f, 0.235950f, 0.095639f, 0.190558f, 0.006708f, 0.002056f, 0.030307f, 0.131539f, 0.202212f, 0.217749f, -0.067200f, 0.255377f, -0.021193f, -0.150495f, -0.034819f, -0.430064f, -0.404782f, 0.065267f, 0.120681f, 0.246587f, 0.092000f, -0.152216f, -0.032793f, -0.245145f, -0.320098f, -0.231079f, -0.214464f, 0.016917f, -0.119136f, -0.223706f, 0.208802f, -0.324106f, -0.349309f, 0.219336f, -0.084719f, -0.238576f, -0.042672f, 0.149635f, 0.067242f, -0.060447f, -0.235390f, 0.044889f, -0.060577f, -0.072956f, -0.392409f, 0.084287f, -0.460842f, -0.224846f, -0.135682f, 0.206423f, -0.138907f, -0.143241f, 0.244878f, -0.109779f, 0.384003f, 0.105707f, -0.083348f, -0.253083f, -0.561202f, -0.011210f, -0.021164f, 0.213293f, -0.187478f, -0.130650f, 0.051176f, -0.621307f, 0.287764f, -0.145129f, -0.092689f, 0.148105f, 0.156977f, 0.121621f, 0.191073f, 0.184189f, 0.216324f, -6.407005f, 0.030972f, -0.631456f, -0.173635f, 0.164315f, -0.270404f, -0.028169f, 0.175232f, -0.574219f, 0.051628f, -0.294213f, -1.951052f, 0.310389f, -3.477340f, 0.134763f, 0.615836f, 0.010439f, 0.278269f, 0.148383f, 0.202241f, -0.090093f, 0.154600f, 0.169567f, -0.002845f, -0.059046f, -0.139230f, 0.210107f, 0.028726f, 0.348929f, -0.091659f, -0.113161f, 0.194036f, 0.086158f, 0.153424f, 0.205343f, -0.016763f, 0.204525f, 0.135931f, 0.144228f, 0.149327f, 0.267126f, 0.110884f, -0.337783f, 0.142961f, 0.173484f, 0.170562f, -0.251495f, 0.045811f, -0.149903f, -0.106354f, -0.297689f, -0.101916f, -0.066878f, -0.129926f, 0.014925f, 0.112823f, 0.024454f, -0.081407f, -0.028897f, -0.177512f, 0.180413f, -0.125867f, -0.147290f, 0.082216f, 0.062604f, 0.233700f, 0.117888f, -0.000379f, -0.043029f, -0.173729f, -0.146594f, -0.177712f, -0.022831f, 0.073328f, 0.171989f, -0.024650f, 0.204837f, -0.216212f, 0.136104f, 0.141441f, -0.100904f, 0.165165f, 0.283879f, -0.206293f, -0.202239f, 0.040128f, -0.157162f, 0.135618f, 0.099365f, -0.118769f, -0.160670f, 0.208250f, -0.181848f, 0.003780f, 0.116069f, 0.229900f, 0.165043f, -0.173042f, -0.042566f, 0.013019f, -0.101930f, -0.081873f, -0.165335f, -0.203643f, -0.062022f, 0.332649f, -0.022598f, 0.056883f, -0.005940f, 0.024661f, 0.171485f, -0.011259f, 0.026537f, -0.096519f, -0.118259f, 0.112402f, 0.067329f, -0.196386f, 0.086177f, -0.271930f, 0.077056f, 0.134585f, -0.239679f, 0.050665f, 0.069020f, 0.007892f, -0.215285f, -0.120806f, 0.057554f, -0.186735f, -0.060807f, -0.025777f, -0.106839f, 0.254911f, -0.200900f, 0.144351f, -0.077257f, -0.210936f, -0.179277f, 0.181311f, 0.123874f, -0.076075f, -0.125003f, -0.243289f, 0.090394f, 0.088717f, 0.257690f, -0.055182f, 0.158934f, -0.115899f, -0.173864f, -0.117018f, 0.225619f, 0.114156f, -0.012744f, -0.183500f, -0.034157f, -0.178667f, 0.013775f, -0.258036f, -0.189526f, 0.017188f, 0.053280f, 0.198571f, -0.097726f, -0.182572f, -0.106549f, -0.268910f, -0.238609f, -0.213425f, -0.131866f, -0.080161f, -0.185557f, -0.115439f, -0.286718f, 0.075738f, 0.147128f, 0.079181f, -0.059315f, -0.189581f, -0.243239f, -0.200754f, 0.259260f, 0.061704f, 0.124910f, -0.045980f, 0.209481f, 0.054651f, -0.189663f, 0.054658f, -0.183759f, 0.183055f, -0.094821f, -0.081954f, -0.181751f, 0.033762f, -0.123942f, -0.438295f, 0.056583f, -0.022078f, 0.182427f, 0.125344f, 0.095325f, -0.129484f, 0.211739f, -0.286740f, 0.178146f, -0.305555f, 0.134630f, -0.291272f, -0.093488f, 0.017462f, -0.289826f, -0.247032f, -0.087043f, -0.192363f, 0.022424f, -0.156229f, 0.068717f, -0.149667f, 0.043031f, -0.067691f, -0.228309f, 0.073058f, -0.193012f, -0.365758f, -0.087584f, -0.350526f, -0.048765f, -0.159006f, -0.017010f, 0.059517f, -0.217387f, -0.003075f, -0.074297f, -0.050654f, 0.335265f, 0.062241f, -0.075855f, -0.471917f, 0.154473f, -0.140743f, -0.013482f, -0.021393f, 0.161830f, -0.026504f, -0.835967f, 0.348164f, -0.200375f, -0.161012f, 0.215809f, -0.050601f, 0.271337f, -0.047247f, -0.080828f, -0.007433f, -6.164589f, -0.070731f, -0.326253f, -0.083436f, 0.318902f, -0.084214f, -0.023580f, -0.042031f, -0.568349f, 0.219764f, 0.091753f, -2.255656f, 0.025540f, -3.616899f, 0.219997f, 0.665062f, -0.064997f, 0.065701f, 0.318545f, -0.129705f, 0.070594f, 0.128185f, -0.085258f, -0.222906f, -0.137518f, 0.067048f, 0.127895f, 0.064408f, 0.199165f, -0.186353f, 0.044501f, 0.545407f, -0.179299f, 0.161710f, 0.130054f, 0.239521f, 0.023015f, -0.147535f, -0.102119f, -0.184882f, -0.138898f, 0.123792f, -0.215990f, -0.099886f, 0.298260f, 0.120721f, 0.044096f, -0.166404f, 0.077660f, 0.179476f, -0.218697f, -0.080362f, -0.013358f, 0.021350f, 0.026509f, -0.232556f, 0.091166f, 0.066308f, -0.075682f, 0.173997f, 0.163691f, -0.212540f, -0.135546f, -0.125946f, 0.010316f, 0.080234f, 0.206985f, 0.093922f, 0.129909f, -0.054194f, -0.081154f, 0.140115f, -0.411100f, -0.140218f, 0.239882f, -0.062585f, 0.420672f, -0.246730f, -0.240262f, -0.029147f, -0.226374f, -0.207268f, 0.313276f, -0.503835f, -0.049887f, 0.022447f, -0.196899f, 0.065141f, -0.150642f, -0.252805f, 0.074492f, -0.224668f, -0.057575f, -0.066265f, -0.077485f, 0.131915f, 0.019738f, -0.161447f, -0.149605f, -0.000329f, 0.040239f, -0.144790f, -0.188131f, -0.099125f, -0.287769f, 0.357066f, 0.021866f, -0.115142f, 0.066321f, -0.240205f, 0.044949f, 0.002122f, -0.045009f, -0.091913f, 0.082996f, -0.092934f, -0.079243f, 0.147225f, -0.288929f, -0.240764f, 0.008416f, 0.079224f, -0.074964f, -0.207209f, -0.136922f, -0.241625f, 0.098097f, -0.202567f, 0.076096f, 0.102449f, 0.066599f, -0.086194f, -0.125588f, 0.117170f, 0.171030f, -0.131229f, -0.179988f, -0.224253f, -0.085483f, 0.080915f, -0.265081f, -0.059060f, -0.091467f, 0.091937f, -0.026801f, 0.050287f, 0.086069f, -0.130720f, 0.181837f, 0.006186f, -0.154133f, -0.007391f, -0.061978f, -0.132710f, -0.101291f, -0.028360f, 0.080387f, 0.080422f, -0.125689f, 0.019191f, 0.193479f, -0.022342f, -0.194484f, -0.074758f, 0.206853f, 0.063206f, -0.014287f, 0.071921f, 0.163754f, -0.274545f, -0.062815f, 0.119490f, -0.054248f, -0.191641f, -0.150792f, -0.237882f, 0.031623f, 0.063586f, 0.066808f, -0.004014f, -0.142986f, 0.005821f, -0.101369f, -0.184295f, 0.150979f, 0.041065f, 0.072072f, 0.139749f, -0.168880f, -0.041212f, -0.224539f, 0.136856f, 0.124658f, 0.012373f, -0.028537f, -0.254365f, -0.466478f, -0.280786f, -0.202481f, -0.038136f, -0.155940f, 0.035240f, -0.133345f, 0.101960f, 0.079484f, -0.306805f, -0.146030f, -0.005941f, -0.243988f, 0.038820f, -0.076158f, 0.129906f, -0.115505f, -0.371537f, 0.001843f, -0.183673f, -0.081747f, -0.537871f, -0.007060f, 0.189722f, -0.157440f, 0.026945f, 0.089958f, -0.142057f, -0.180641f, 0.031370f, 0.213071f, -0.269258f, 0.207450f, 0.009567f, 0.031424f, 0.091073f, -0.010484f, 0.289476f, -0.198521f, 0.215682f, 0.723184f, 0.083746f, -0.146223f, -0.680741f, -0.230109f, 0.199285f, -0.073904f, 0.081022f, 0.128194f, 0.120417f, -0.681719f, 0.181658f, 0.175396f, 0.249369f, 0.192142f, 0.047639f, -0.025775f, 0.101333f, -0.230654f, -0.211734f, -5.675196f, -0.028775f, -0.758953f, -0.071461f, 0.198681f, -0.547929f, 0.110962f, -0.223584f, -0.854826f, -0.014695f, -0.114147f, -1.976166f, 0.384989f, -3.624793f, 0.139672f, 0.533976f, 0.154592f, 0.067581f, 0.816108f, -0.117535f, -0.218162f, -0.087039f, -0.045935f, 0.199768f, -0.062117f, 0.097231f, 0.135000f, 0.126977f, 0.193055f, -0.112338f, 0.080911f, 0.589843f, -0.106929f, 0.492620f, 0.027748f, 0.003769f, 0.158637f, -0.165919f, -0.227887f, 0.059823f, 0.227362f, 0.588553f, -0.313878f, -0.121954f, 0.340275f, 0.134449f, -0.093215f, 0.014692f, 0.031615f, -0.056932f, -0.299056f, -0.172476f, 0.158045f, -0.185041f, 0.169653f, 0.148917f, -0.135178f, -0.157266f, 0.015019f, -0.155219f, 0.102258f, -0.018852f, 0.210533f, 0.210188f, 0.064179f, -0.027131f, -0.001652f, 0.113284f, -0.094124f, 0.004391f, -0.240092f, -0.260584f, -0.313273f, 0.174341f, -0.043730f, 0.160784f, 0.340864f, -0.340510f, -0.232305f, 0.077332f, 0.104004f, -0.043267f, 0.328140f, -0.583324f, -0.344470f, -0.070625f, -0.107748f, -0.028060f, -0.050889f, -0.731491f, -0.168176f, -0.051202f, -0.070272f, -0.077295f, 0.210209f, 0.268157f, -0.160748f, -0.148045f, -0.225109f, 0.078401f, -0.123989f, -0.111888f, 0.066526f, -0.074955f, 0.137065f, 0.140038f, 0.063863f, -0.131554f, -0.234619f, -0.100172f, 0.042730f, 0.211401f, 0.087581f, -0.244394f, -0.062307f, 0.087989f, -0.033186f, 0.226372f, -0.229867f, -0.220683f, -0.191220f, 0.146433f, -0.083662f, 0.099742f, -0.094120f, -0.161944f, 0.126635f, -0.170908f, -0.203921f, -0.053992f, 0.156958f, 0.155717f, -0.177640f, -0.064330f, -0.050405f, -0.198786f, 0.206108f, 0.168147f, -0.353328f, -0.011090f, -0.128270f, 0.233303f, 0.129669f, -0.000300f, -0.073574f, -0.220397f, 0.217441f, 0.252033f, -0.199747f, -0.157688f, -0.081118f, 0.148285f, -0.021673f, -0.028451f, 0.020605f, -0.096652f, -0.093068f, 0.142502f, 0.021590f, -0.137034f, 0.186754f, 0.134304f, -0.023712f, 0.276842f, 0.122126f, 0.061070f, 0.236910f, -0.084388f, -0.286601f, 0.070340f};
static const float model_layer_1_biases[64] = {-0.036563f, -0.039535f, -0.103333f, -0.027919f, -1.112206f, 0.187768f, -0.044745f, -0.075096f, 0.000003f, -0.094125f, 0.193468f, -0.155263f, 0.289219f, -0.051605f, -0.069351f, -0.006949f, -0.061074f, -0.068512f, -0.146631f, -0.026729f, 0.120801f, 0.101914f, -0.117147f, 0.030196f, -0.027199f, -0.154804f, -0.038058f, -0.080208f, -0.091297f, -1.128639f, -0.114047f, 0.224474f, 0.058743f, -0.314211f, -0.038438f, -0.517630f, -0.597817f, -0.057362f, -0.229367f, -0.150154f, -0.358826f, -0.062620f, -0.038950f, -0.008024f, -0.069294f, -0.119822f, -0.084207f, -0.124329f, -0.056895f, -1.239777f, 0.167428f, -0.086750f, -0.081669f, -0.106814f, -0.088493f, -0.035735f, 0.143794f, -0.065441f, -0.180529f, -0.060595f, -0.017706f, -0.018107f, -1.178098f, 0.399647f};
static const float model_layer_1_weights[4096] = {-0.003719f, -0.163151f, -0.211450f, 0.064537f, -0.061130f, -0.166148f, 0.109896f, 0.077624f, 0.013983f, 0.031735f, 0.026110f, 0.126133f, -0.282994f, -0.234359f, 0.022999f, 0.016741f, -0.254220f, 0.088502f, -0.033023f, 0.043660f, -0.066163f, -0.144855f, 0.155414f, -0.226065f, -0.022624f, -0.118981f, 0.018604f, -0.100232f, -0.088112f, 0.025574f, 0.145036f, 0.159410f, 0.026574f, -0.220199f, -0.005151f, 0.140312f, 0.035759f, -0.028701f, 0.116739f, 0.028520f, 0.110848f, -0.028309f, 0.077053f, -0.177634f, -0.116777f, -0.168085f, -0.208122f, 0.012675f, 0.063286f, 0.131512f, -0.000267f, -0.024134f, 0.066755f, -0.106430f, 0.132346f, 0.179734f, 0.127020f, -0.143875f, -0.012402f, 0.115671f, 0.069638f, -0.136253f, -0.177824f, -0.245975f, -0.210081f, 0.120334f, 0.008944f, 0.067016f, -0.016348f, -0.136410f, 0.073696f, 0.066649f, -0.210258f, -0.020759f, -0.216444f, -0.145987f, 0.084251f, -0.233796f, -0.030806f, -0.003145f, 0.056921f, -0.204633f, -0.109841f, 0.065586f, 0.137561f, 0.195041f, -0.170148f, 0.110662f, 0.100939f, 0.311744f, -0.001747f, 0.009228f, 0.028811f, 0.305622f, 0.000553f, -0.066441f, -0.237133f, 0.082249f, -0.128720f, -0.000969f, 0.198830f, -0.052775f, 0.093920f, 0.023548f, -0.044053f, 0.037558f, 0.197909f, 0.143413f, 0.080814f, -0.086379f, 0.143200f, -0.167800f, 0.065580f, -0.008925f, -0.129422f, -0.268132f, 0.199008f, -0.122372f, -0.140465f, -0.045376f, 0.086582f, -0.051761f, -0.140273f, -0.232904f, -0.189610f, -0.107235f, 0.080948f, -0.249259f, -0.233872f, 0.060426f, 0.053438f, -0.155584f, 0.043224f, -0.213445f, 0.028641f, -0.283816f, 0.112170f, -0.208560f, 0.123008f, 0.066846f, 0.101745f, 0.083364f, -0.063152f, -0.075662f, -0.038233f, 0.113777f, -0.176218f, -0.064906f, 0.049003f, 0.031510f, -0.289735f, -0.024393f, 0.000981f, 0.071861f, 0.168419f, -0.046835f, -0.190575f, 0.083614f, -0.180988f, -0.017143f, -0.152279f, -0.104403f, -0.225142f, 0.048009f, -0.253020f, -0.218481f, 0.041042f, -0.264852f, 0.043812f, 0.047264f, -0.082373f, 0.084968f, 0.100167f, -0.315643f, -0.330156f, -0.498673f, -0.070921f, 0.107522f, 0.007395f, -0.198028f, 0.119662f, -0.106372f, -0.172598f, -0.067587f, -0.214761f, 0.013257f, -0.047594f, -0.323002f, 0.120729f, -0.091009f, 0.068862f, 0.112027f, -0.167880f, -0.133567f, -0.152891f, -0.001337f, 0.095123f, 0.191861f, 0.089213f, -0.035718f, -0.028703f, -0.070064f, -0.087877f, -0.176372f, 0.082401f, 0.066827f, 0.122381f, -0.177664f, 0.144743f, -0.209237f, 0.120252f, 0.148531f, -0.091308f, -0.148736f, 0.079030f, 0.129488f, 0.003183f, -0.238330f, -0.114234f, 0.038754f, -0.025249f, 0.114821f, -0.040844f, 0.124023f, -0.125568f, -0.143866f, 0.019971f, -0.229155f, -0.021717f, 0.050611f, 0.146697f, 0.164079f, 0.202986f, -0.084554f, -0.128682f, -0.195586f, -0.025158f, -0.137947f, -0.206781f, 0.048557f, -0.082963f, -0.211695f, 0.057968f, 0.147027f, 0.050753f, -0.013975f, -0.029610f, -0.092260f, 0.058829f, 0.151642f, -0.202727f, 0.099626f, -0.113292f, 0.096132f, 0.148943f, -0.054293f, -0.157005f, -0.082600f, -0.168055f, 0.059282f, 0.020145f, 0.108373f, -0.007909f, 0.040238f, -0.203908f, 0.271545f, -0.037379f, -0.089123f, 0.022217f, -0.043312f, 0.155664f, -0.180252f, 0.225974f, 0.090617f, 0.066691f, -0.052953f, 0.156291f, 0.076914f, -0.078605f, -0.064599f, -0.194407f, -0.127433f, -0.017128f, 0.234299f, -0.106028f, -0.045428f, 0.203782f, 0.135852f, 0.143475f, -0.069785f, -0.282631f, 0.088725f, 0.214869f, 0.079063f, 0.056620f, 0.139851f, 0.230423f, 0.050506f, 0.056439f, -0.119384f, 0.183506f, 0.004611f, -0.052463f, 0.318960f, -0.052127f, 0.085513f, 0.100206f, 0.116159f, -0.108331f, 0.019569f, 0.255980f, -0.016703f, 0.128070f, -0.020734f, 0.086392f, 0.069794f, 0.109529f, -0.123061f, -0.120693f, -0.107200f, 0.010201f, -0.262290f, -0.133829f, -0.210226f, -0.076449f, 0.190634f, 0.028609f, -0.012992f, -0.019127f, 0.263794f, 0.069760f, 0.140084f, 0.060720f, -0.048634f, -0.099946f, -0.076604f, 0.150899f, 0.000210f, 0.191944f, -0.173703f, -0.040740f, 0.122375f, -0.085752f, 0.228607f, -0.108287f, -0.100255f, 0.124172f, -0.173119f, -0.159329f, 0.089948f, -0.063498f, 0.043728f, 0.076281f, -0.047475f, 0.057296f, -0.040690f, -0.013266f, 0.204441f, -0.012365f, 0.253458f, -0.099520f, 0.029830f, -0.133332f, 0.032984f, -0.068723f, -0.085057f, -0.092545f, 0.097952f, -0.200877f, -0.029766f, -0.155296f, -0.068579f, -0.178387f, 0.072841f, -0.037196f, 0.078744f, 0.133871f, -0.111717f, -0.055908f, -0.020957f, -0.072598f, -0.027319f, -0.119187f, -0.191416f, -0.140712f, 0.042623f, -0.070334f, -0.125252f, -0.112134f, -0.002246f, 0.196537f, -0.061548f, 0.000924f, -0.141747f, -0.058321f, 0.126822f, 0.095409f, 0.174143f, 0.098324f, -0.122143f, 0.009343f, 0.100599f, 0.045164f, 0.153149f, -0.105848f, -0.215793f, -0.094456f, -0.076446f, -0.179671f, -0.024143f, -0.091039f, 0.184890f, 0.204443f, -0.158919f, 0.098520f, 0.011919f, 0.031991f, -0.198555f, -0.016399f, -0.126548f, -0.206069f, 0.066722f, -0.088777f, 0.132320f, -0.163573f, -0.145073f, 0.140591f, -0.050203f, -0.015305f, 0.109395f, -0.020928f, -0.211478f, 0.191083f, -0.109209f, 0.024545f, 0.134822f, 0.155333f, -0.174394f, -0.190364f, -0.075533f, 0.130084f, -0.125881f, -0.107257f, -0.162826f, 0.199320f, -0.063944f, 0.205932f, 0.087141f, 0.206501f, 0.126320f, 0.151500f, -0.171091f, 0.170048f, 0.035207f, 0.099672f, -0.194880f, -0.067000f, 0.152147f, 0.064079f, 0.141036f, 0.069410f, 0.179549f, 0.146050f, -0.115487f, -0.141943f, 0.024078f, -0.166130f, -0.098274f, -0.073331f, 0.116642f, -0.019656f, 0.202117f, -0.139357f, -0.022407f, 0.094113f, -0.101636f, 0.106961f, 0.165423f, 0.196032f, -0.181837f, 0.050666f, 0.155907f, -0.093403f, -0.054530f, 0.118053f, -0.149525f, -0.016212f, 0.142763f, 0.117805f, 0.050092f, 0.069990f, 0.089549f, 0.086641f, -0.048273f, 0.049866f, 0.148431f, 0.043165f, 0.079831f, -0.135029f, 0.206515f, 0.180190f, 0.101763f, 0.189639f, 0.013545f, 0.024638f, -0.070960f, 0.074832f, 0.035777f, 0.125705f, -0.119975f, -0.109139f, -0.138246f, -0.214818f, -0.029559f, -0.117982f, 0.199343f, -0.135919f, 0.250126f, 0.068549f, 0.269673f, 0.011578f, 0.415205f, 0.154522f, 0.218834f, -0.011075f, 0.146424f, -0.240427f, -0.182491f, -0.108297f, -0.102513f, -0.180497f, 0.177073f, -0.216059f, 0.047904f, -0.077388f, 0.113600f, -0.245536f, 0.064114f, 0.063662f, -0.154293f, 0.038624f, -0.109148f, 0.292085f, 0.201746f, 0.142290f, -0.027123f, -0.209966f, 0.218525f, -0.201159f, 0.109820f, 0.157724f, 0.108294f, -0.155747f, 0.157666f, 0.059930f, -0.175739f, 0.150966f, 0.001073f, 0.140829f, 0.127322f, 0.000552f, 0.068088f, 0.017767f, 0.167200f, -0.069867f, -0.182515f, 0.218104f, -0.151899f, 0.098706f, 0.104255f, -0.176171f, -0.001606f, 0.116440f, 0.152698f, 0.152326f, -0.155853f, 0.201210f, -0.251802f, 0.156824f, 0.040114f, 0.098960f, -0.057468f, 0.243112f, -0.185877f, -0.109271f, 0.036557f, 0.185223f, -0.166549f, -0.215483f, 0.093149f, 0.154239f, -0.007396f, 0.055183f, -0.089137f, -0.184247f, 0.167278f, 0.142745f, -0.023982f, 0.092167f, -0.137346f, 0.124410f, -0.009779f, 0.011303f, -0.013144f, -0.105061f, -0.043441f, 0.144704f, 0.033711f, -0.155236f, 0.161800f, -0.144756f, -0.021075f, -0.018796f, 0.108796f, -0.177229f, 0.248516f, -0.083202f, -0.075628f, 0.020727f, 0.137699f, -0.180413f, -0.167612f, 0.085201f, 0.254666f, -0.122722f, -0.082238f, -0.009243f, 0.083625f, 0.127176f, -0.107654f, -0.043139f, -0.109658f, 0.072075f, -0.185723f, 0.038174f, 0.066376f, -0.039184f, -0.005486f, -0.038216f, -0.241634f, 0.154530f, -0.159657f, 0.151147f, -0.183854f, -0.151645f, 0.130545f, -0.027122f, -0.234644f, -0.006068f, 0.412088f, 0.242640f, -0.064322f, 0.025400f, -0.057570f, -0.257727f, -0.082482f, -0.011996f, 0.025768f, -0.045435f, -0.029788f, -0.241745f, -0.327706f, 0.114018f, 0.100897f, 0.101806f, -0.073631f, -0.078476f, 0.164085f, 0.157347f, 0.079542f, 0.185996f, 0.033395f, 0.057867f, -0.055898f, -0.151313f, -0.102871f, -0.135974f, -0.208792f, -0.065877f, 0.473733f, 0.127138f, -0.137608f, 0.030218f, 0.111623f, -0.078315f, 0.138172f, -0.045356f, -0.164527f, 0.259170f, 0.044119f, 0.125129f, 0.118752f, 0.014883f, -0.107848f, 0.238736f, -0.058191f, 0.002432f, -0.197060f, 0.255209f, 0.063042f, -0.023444f, -0.039574f, -0.135184f, -0.030997f, -0.092737f, -0.161819f, -0.131120f, -0.037413f, 0.110411f, 0.102116f, 0.028927f, -0.097559f, 0.017431f, 0.149627f, 0.121452f, 0.154346f, -0.180571f, -0.174950f, 0.096984f, 0.161330f, -0.210824f, -0.154679f, 0.000664f, 0.125128f, 0.061027f, -0.127653f, -0.076194f, -0.124366f, 0.035237f, 0.168938f, 0.124405f, 0.144032f, -0.031180f, -0.054004f, -0.178520f, -0.171738f, -0.084643f, -0.158245f, 0.117913f, 0.155376f, 0.175997f, 0.122458f, 0.206931f, -0.066385f, -0.204711f, -0.033585f, 0.154635f, 0.004693f, 0.020077f, 0.018848f, 0.009828f, -0.105856f, -0.046788f, -0.179771f, -0.104351f, 0.089349f, -0.184338f, 0.097996f, 0.011262f, 0.057916f, -0.083422f, 0.034852f, -0.143650f, -0.114428f, -0.028982f, 0.010417f, -0.131932f, -0.071731f, -0.151743f, -0.080493f, -0.107141f, -0.012297f, -0.055231f, 0.546497f, 0.080215f, 0.213365f, 0.092930f, -0.105328f, -0.020749f, -0.116749f, 0.301552f, -0.043922f, 0.257654f, -0.205093f, 0.362248f, -0.033917f, 0.029323f, -0.133399f, 0.272891f, -0.037381f, 0.362665f, 0.252826f, 0.182432f, -0.479899f, -0.235090f, -0.097206f, 0.062243f, -0.183011f, 0.012048f, 0.280701f, 0.112256f, -0.252367f, 0.116377f, -0.271477f, 0.039405f, 0.134367f, -0.202986f, -0.091381f, -0.313125f, 0.075868f, 0.025792f, 0.169485f, 0.304951f, 0.035930f, -0.127144f, 0.278894f, -0.034670f, -0.244259f, -0.064795f, 0.239683f, 0.151513f, -0.184211f, 0.258465f, 0.296388f, 0.145099f, 0.284671f, 0.133493f, -0.066311f, -0.010673f, 0.021325f, -0.205666f, 0.138884f, 0.128440f, 0.079244f, -0.073564f, 0.040349f, -0.146044f, 0.012019f, -0.117610f, 0.134674f, -0.120324f, 0.056554f, -0.153092f, 0.090756f, 0.115063f, 0.032722f, -0.117111f, 0.021329f, -0.055616f, -0.271694f, 0.119282f, 0.061294f, -0.130785f, 0.135515f, 0.168062f, -0.094809f, 0.052475f, 0.050104f, -0.137860f, -0.154636f, -0.134486f, -0.040176f, -0.092973f, -0.027892f, -0.207057f, -0.240409f, -0.160423f, -0.218322f, -0.131819f, 0.119897f, 0.043535f, -0.078668f, -0.137299f, 0.086960f, 0.097763f, -0.032713f, -0.330341f, 0.211974f, -0.148802f, -0.157779f, -0.131557f, 0.115978f, 0.178654f, 0.059433f, 0.182765f, -0.207396f, 0.043522f, -0.075359f, 0.096313f, 0.048111f, 0.043105f, 0.039500f, 0.191240f, -0.166537f, 0.068260f, -0.194487f, -0.036872f, 0.162300f, -0.201275f, 0.203995f, -0.135234f, -0.116882f, -0.124888f, -0.002715f, -0.167133f, -0.160627f, 0.162545f, 0.102083f, -0.037388f, -0.067025f, -0.116007f, 0.060358f, -0.195858f, 0.037618f, -0.199080f, 0.044186f, 0.110123f, 0.085674f, 0.052038f, 0.074152f, -0.111391f, 0.202773f, 0.022613f, -0.075700f, 0.099091f, -0.073892f, 0.154618f, -0.164642f, 0.013154f, -0.106941f, -0.119989f, -0.127306f, 0.189575f, -0.009734f, -0.040620f, -0.078052f, 0.182165f, -0.089827f, -0.148287f, -0.019532f, 0.033146f, -0.206608f, -0.020766f, 0.203100f, 0.177269f, -0.190785f, 0.124017f, 0.120042f, -0.035610f, -0.050170f, 0.022518f, -0.172895f, 0.099159f, -0.163129f, -0.006728f, -0.179637f, 0.054540f, 0.140761f, 0.008012f, 0.209574f, 0.144951f, 0.214038f, -0.216455f, -0.132273f, -0.174526f, 0.156632f, -0.097609f, -0.143166f, 0.031885f, 0.175908f, 0.135363f, -0.038121f, -0.022884f, -0.051620f, -0.223213f, -0.010797f, 0.143996f, -0.203085f, 0.124359f, 0.061667f, -0.107946f, -0.242823f, -0.036870f, 0.168210f, 0.018795f, 0.187641f, -0.226223f, -0.168344f, -0.001493f, -0.053938f, -0.156887f, 0.100900f, -0.064703f, -0.015838f, -0.110825f, 0.133525f, -0.159507f, -0.127386f, 0.112697f, -0.186257f, 0.126904f, -0.119848f, -0.217775f, 0.111477f, -0.085628f, -0.154448f, -0.102925f, -0.006190f, -0.171897f, 0.048771f, -0.196483f, -0.071861f, 0.111250f, -0.120570f, -0.149455f, -0.149494f, -0.169525f, -0.157728f, 0.045530f, -0.169068f, 0.212276f, -0.051696f, -0.004494f, -0.051881f, -0.207109f, -0.199653f, -0.024610f, -0.094412f, 0.043432f, 0.190334f, -0.192351f, 0.208905f, -0.010470f, -0.010782f, 0.195365f, -0.187515f, -0.200902f, -0.169829f, 0.033170f, -0.019629f, -0.113479f, 0.159580f, -0.018023f, -0.008100f, 0.159113f, 0.140200f, -0.058286f, 0.139524f, 0.084112f, -0.014491f, 0.109134f, -0.096358f, 0.207885f, -0.057054f, -0.116093f, 0.075291f, -0.009301f, 0.151944f, -0.079220f, 0.051513f, 0.095157f, -0.169847f, 0.150436f, -0.154527f, 0.209976f, 0.161679f, -0.093444f, -0.046588f, -0.042916f, 0.198296f, 0.136422f, 0.014380f, 0.090620f, 0.163014f, 0.108168f, -0.177458f, -0.130952f, 0.002774f, -0.149489f, -0.207242f, -0.086874f, -0.207349f, 0.215802f, 0.127232f, -0.005546f, -0.154052f, 0.111536f, 0.068995f, -0.202089f, -0.009982f, 0.154863f, 0.096981f, -0.148540f, -0.057733f, 0.153873f, 0.178888f, -0.118310f, 0.045049f, 0.106810f, 0.045688f, 0.018164f, -0.164020f, 0.212498f, -0.081639f, -0.211227f, 0.162305f, -0.011221f, 0.155329f, -0.110705f, -0.177651f, -0.203569f, 0.005954f, -0.164385f, 0.023394f, 0.130883f, 0.041744f, 0.091544f, 0.137265f, -0.035227f, 0.119595f, 0.045572f, -0.167750f, 0.138021f, -0.051007f, -0.123306f, -0.011059f, -0.139153f, 0.049342f, -0.174212f, -0.158166f, -0.170922f, 0.132859f, -0.210458f, 0.074237f, 0.078834f, 0.158801f, -0.057442f, 0.132414f, -0.145118f, -0.094460f, -0.105491f, -0.104751f, -0.068948f, -0.127263f, -0.031540f, 0.141784f, 0.140441f, -0.011625f, -0.107739f, 0.042117f, -0.135660f, -0.128809f, -0.069172f, -0.028808f, -0.209144f, 0.043633f, 0.047309f, -0.252499f, 0.002497f, -0.220330f, 0.065080f, -0.093939f, 0.175247f, -0.000568f, -0.040396f, -0.051638f, -0.109393f, -0.215520f, 0.004756f, 0.019320f, -0.023456f, 0.154744f, -0.054182f, 0.026709f, -0.251900f, 0.186341f, -0.104355f, -0.137030f, 0.154013f, 0.113749f, -0.018980f, -0.087894f, -0.150300f, 0.246534f, 0.228681f, -0.023236f, 0.175113f, -0.156629f, -0.068025f, 0.131600f, 0.098241f, -0.298206f, 0.089123f, -0.224208f, 0.068645f, -0.004943f, -0.269158f, 0.132708f, 0.100621f, 0.218833f, -0.129835f, 0.027897f, -0.035359f, 0.074692f, 0.094001f, 0.127367f, 0.074411f, -0.124573f, -0.129808f, 0.071193f, -0.106210f, -0.146144f, 0.082027f, 0.061456f, 0.069965f, 0.002016f, 0.062334f, -0.055768f, 0.476747f, 0.041618f, 0.179032f, -0.051496f, 0.204864f, -0.125439f, -0.088495f, 0.109165f, -0.075268f, 0.209534f, -0.128888f, -0.045799f, -0.146226f, 0.172458f, -0.034848f, -0.092676f, -0.101148f, 0.255082f, 0.060450f, -0.224463f, 0.095112f, -0.106055f, -0.079970f, -0.114951f, 0.085852f, -0.063584f, -0.264921f, -0.084987f, 0.006691f, 0.048615f, 0.046259f, 0.031223f, 0.033348f, -0.051296f, 0.061110f, 0.195197f, -0.229961f, -0.110844f, -0.072524f, -0.077694f, 0.187045f, 0.070439f, 0.043456f, 0.360684f, 0.146413f, 0.181907f, -0.025794f, -0.066889f, -0.164903f, -0.054620f, -0.120347f, -0.186919f, 0.234487f, 0.097638f, -0.023513f, 0.057824f, 0.056460f, -0.157546f, 0.211464f, -0.133853f, -0.067016f, -0.176298f, -0.126464f, 0.093417f, -0.092405f, 0.147087f, -0.107137f, 0.085503f, -0.045323f, 0.055646f, 0.022747f, -0.174685f, -0.043165f, 0.044750f, 0.108491f, 0.000349f, 0.181554f, 0.103301f, 0.115475f, 0.137563f, -0.173804f, 0.166937f, -0.199188f, -0.031565f, -0.094777f, 0.111652f, 0.104063f, 0.196396f, 0.150896f, -0.199157f, 0.082958f, -0.007619f, -0.189830f, 0.144749f, -0.045401f, -0.046763f, 0.190629f, 0.129681f, -0.181264f, -0.179601f, -0.111790f, 0.173955f, 0.118745f, -0.042817f, 0.097046f, -0.103558f, 0.043636f, -0.085168f, 0.166970f, 0.060504f, 0.118414f, 0.009088f, -0.048793f, -0.110559f, 0.131010f, -0.151623f, -0.178614f, 0.203593f, 0.089036f, 0.180947f, 0.070714f, -0.203380f, -0.104621f, 0.136246f, -0.192773f, -0.080967f, 0.099508f, 0.205578f, 0.028209f, 0.108145f, -0.109307f, 0.166578f, -0.165260f, -0.056260f, -0.169633f, -0.016341f, -0.107375f, -0.079943f, 0.106913f, 0.128716f, -0.085785f, 0.171250f, 0.032697f, 0.174658f, 0.167773f, -0.166770f, -0.140110f, -0.200889f, -0.135966f, 0.015492f, -0.145113f, -0.109474f, 0.120663f, 0.115537f, 0.023481f, 0.114550f, 0.189132f, -0.164661f, -0.102545f, 0.146083f, -0.006284f, -0.138859f, 0.130086f, -0.164174f, -0.147551f, -0.144784f, -0.107591f, -0.121113f, -0.066157f, 0.051963f, -0.063321f, -0.021659f, 0.190161f, -0.148295f, 0.064220f, 0.032175f, -0.128853f, -0.166211f, -0.110908f, 0.016627f, 0.212990f, -0.167855f, -0.193563f, -0.096648f, -0.025213f, -0.028869f, 0.022948f, -0.083398f, 0.121115f, 0.183474f, 0.157954f, -0.100638f, -0.054310f, -0.161174f, -0.458127f, 0.195396f, 0.136516f, 0.136120f, -0.123236f, -0.138657f, 0.066057f, -0.155602f, 0.566359f, 0.027752f, 0.070595f, -0.138677f, 0.193454f, 0.019160f, 0.070762f, -0.224571f, 0.254590f, 0.289081f, 0.062811f, 0.330697f, 0.034420f, -0.230379f, -0.042713f, -0.155747f, 0.110889f, -0.530003f, -0.121073f, -0.114812f, 0.305823f, -0.106147f, 0.007416f, -0.870817f, -0.384636f, 0.039767f, -0.126384f, -0.231829f, -0.381407f, -0.054352f, -0.091403f, -0.076141f, 0.099332f, -0.006453f, 0.172662f, -0.166351f, 0.191222f, -0.526540f, -0.095267f, 0.123422f, 0.067125f, -0.228276f, -0.328342f, 0.277301f, 0.287802f, -0.300302f, -0.010243f, 0.043893f, -0.203850f, -0.083632f, -0.760826f, 0.128694f, -0.105105f, -0.146988f, 0.076451f, -0.089407f, 0.145409f, 0.092849f, 0.024715f, 0.235048f, 0.031612f, 0.123162f, -0.019332f, 0.039900f, 0.142533f, 0.141721f, 0.137760f, -0.140553f, 0.073585f, 0.092733f, -0.313393f, -0.030454f, 0.111995f, -0.305406f, -0.081255f, 0.030755f, 0.102847f, 0.014622f, -0.220634f, -0.201253f, 0.092450f, -0.171753f, 0.039190f, 0.177834f, -0.132254f, 0.100612f, -0.068064f, 0.047837f, -0.152403f, 0.101869f, 0.068143f, -0.282191f, -0.057338f, -0.174334f, -0.204078f, -0.036055f, -0.083114f, -0.284345f, -0.205472f, 0.024920f, 0.022036f, 0.105240f, 0.073146f, -0.101058f, 0.149474f, -0.185321f, 0.081072f, -0.081620f, 0.026044f, 0.177251f, 0.000911f, 0.021285f, -0.182739f, -0.132499f, 0.018709f, 0.210169f, 0.158659f, -0.099962f, -0.188688f, 0.119352f, -0.199073f, -0.014312f, 0.376092f, 0.199117f, 0.004409f, 0.231014f, 0.091196f, -0.083624f, 0.122245f, 0.006014f, 0.035134f, -0.197092f, -0.038442f, -0.088101f, 0.026637f, -0.106073f, -0.094799f, -0.055411f, -0.151616f, 0.062994f, 0.135584f, 0.060670f, 0.033999f, 0.288886f, 0.137328f, -0.126171f, 0.337941f, 0.230865f, -0.011361f, 0.016151f, -0.020784f, -0.165022f, -0.206485f, 0.041780f, 0.218130f, 0.431984f, 0.210024f, -0.018049f, 0.090874f, 0.190838f, 0.228097f, -0.241873f, -0.124067f, 0.253998f, 0.024846f, -0.062076f, 0.194506f, 0.316405f, 0.048868f, -0.194370f, 0.121204f, -0.179322f, 0.223920f, 0.142256f, 0.242246f, -0.091763f, 0.288539f, -0.153984f, 0.176485f, 0.099060f, 0.134589f, 0.134729f, 0.084023f, 0.042655f, -0.140693f, 0.184418f, -0.055911f, -0.063345f, -0.140680f, 0.073579f, 0.144928f, 0.024875f, -0.017590f, -0.101743f, 0.117490f, 0.019886f, 0.048090f, -0.005071f, 0.115106f, 0.017854f, 0.114219f, 0.107057f, 0.029358f, -0.041933f, 0.125142f, -0.028680f, 0.202284f, -0.075879f, 0.026780f, -0.199446f, -0.066274f, -0.085976f, 0.103274f, 0.122592f, -0.129374f, 0.038480f, 0.077167f, -0.000323f, 0.167244f, -0.067248f, 0.040544f, -0.054063f, -0.206011f, -0.092563f, 0.012637f, 0.019764f, 0.077864f, -0.045880f, 0.049252f, -0.112195f, -0.176183f, 0.172021f, -0.074332f, -0.035173f, 0.196725f, -0.179528f, -0.012009f, -0.190567f, 0.064657f, 0.171228f, -0.018686f, -0.036806f, -0.077197f, 0.026711f, -0.194690f, -0.206093f, -0.023334f, -0.227283f, 0.050189f, -0.088090f, 0.229412f, -0.121112f, -0.165850f, 0.074088f, 0.079229f, -0.096781f, -0.232947f, -0.021322f, -0.062719f, -0.073971f, -0.264993f, -0.235618f, -0.284985f, -0.049614f, -0.149778f, -0.138437f, 0.050375f, -0.127833f, -0.179404f, 0.235323f, -0.027191f, 0.082146f, 0.098261f, -0.040138f, 0.329786f, 0.278335f, -0.099426f, -0.103940f, 0.195871f, -0.136860f, -0.176570f, 0.050520f, 0.021057f, 0.014735f, -0.005669f, -0.193982f, -0.092298f, 0.124716f, -0.174371f, -0.251200f, -0.099725f, -0.235595f, 0.002688f, -0.108441f, 0.278971f, 0.076898f, 0.022581f, -0.161159f, -0.154839f, 0.019294f, 0.098299f, 0.054731f, 0.058410f, -0.162891f, -0.119947f, 0.159278f, -0.034162f, -0.196894f, -0.070496f, -0.278754f, -0.093680f, -0.169425f, -0.194412f, 0.278255f, 0.183078f, 0.023504f, -0.144823f, 0.300669f, 0.209801f, -0.102193f, -0.255834f, -0.045875f, -0.009115f, 0.052755f, 0.138416f, -0.029830f, 0.081166f, -0.203997f, -0.182832f, -0.256889f, -0.064886f, -0.293199f, -0.208100f, -0.224445f, -0.131997f, 0.469787f, 0.137995f, -0.284390f, 0.212537f, 0.346227f, 0.084796f, -0.225428f, 0.113762f, 0.162775f, -0.361092f, 0.109508f, -0.192035f, 0.245231f, -0.158720f, -0.174516f, -0.186093f, -0.210494f, -0.022761f, -0.110682f, -0.199039f, 0.270802f, -0.106350f, -0.289369f, 0.316940f, 0.104873f, -0.082109f, 0.031085f, 0.244404f, -0.362770f, -0.138805f, -0.154790f, 0.235007f, -0.038369f, -0.063332f, 0.081077f, -0.390665f, -0.150736f, 0.081044f, 0.117760f, 0.036337f, -0.044806f, -0.121472f, 0.190421f, 0.211699f, 0.117328f, -0.005107f, -0.064839f, 0.001352f, -0.108730f, 0.124192f, 0.110498f, 0.020416f, -0.092987f, 0.030736f, -0.094184f, 0.181837f, -0.031800f, 0.058518f, -0.206119f, 0.154935f, 0.010972f, 0.210175f, 0.202825f, -0.140761f, 0.059314f, -0.012672f, -0.072478f, -0.069495f, -0.160825f, -0.169072f, -0.158408f, -0.162394f, 0.198724f, -0.128128f, -0.113171f, 0.164197f, 0.407638f, 0.025175f, -0.220154f, -0.071018f, -0.112675f, 0.142646f, -0.055895f, 0.136036f, 0.115115f, -0.022018f, -0.061870f, 0.153990f, -0.118581f, -0.212189f, -0.119558f, -0.017848f, 0.107414f, -0.079887f, 0.072851f, 0.008115f, -0.029005f, 0.050467f, -0.060984f, -0.049490f, 0.050857f, -0.085866f, -0.084162f, 0.160459f, 0.004559f, 0.178171f, 0.213269f, -0.063384f, 0.054878f, -0.059853f, -0.056734f, -0.122642f, 0.105108f, 0.135351f, 0.008005f, 0.024598f, 0.136357f, 0.153459f, -0.214221f, 0.074224f, 0.282541f, -0.039215f, -0.026805f, 0.084525f, -0.193632f, 0.004776f, -0.173414f, -0.021502f, 0.128241f, 0.037616f, 0.026789f, 0.143012f, -0.136929f, -0.150545f, -0.069729f, -0.031893f, -0.090739f, 0.169072f, -0.114730f, -0.002799f, -0.180679f, -0.053899f, -0.208845f, -0.212991f, -0.163198f, -0.158564f, -0.021601f, 0.201047f, -0.158127f, -0.160173f, 0.170684f, 0.215451f, 0.023749f, 0.085109f, -0.218586f, 0.067339f, 0.140295f, 0.174940f, 0.084541f, -0.184014f, 0.126921f, -0.134178f, -0.130255f, -0.086188f, -0.150696f, -0.124720f, -0.118414f, -0.216256f, 0.045084f, -0.080513f, 0.345930f, 0.001512f, -0.039327f, -0.115247f, -0.113877f, -0.293746f, -0.157206f, -0.019592f, -0.000093f, -0.051405f, -0.204313f, -0.060445f, -0.179646f, 0.087802f, -0.094484f, -0.035396f, 0.011790f, -0.089924f, -0.018137f, -0.210300f, 0.160572f, -0.159383f, 0.130618f, -0.229083f, -0.073661f, 0.056509f, 0.019166f, -0.256238f, 0.068930f, -0.047802f, 0.130761f, -0.226638f, 0.092527f, 0.342231f, 0.063475f, 0.080046f, -0.255442f, -0.156039f, -0.306361f, 0.136405f, -0.027916f, -0.277447f, 0.187761f, 0.107612f, -0.360205f, -0.240745f, 0.168132f, -0.183104f, 0.073752f, 0.093283f, 0.217088f, 0.216458f, -0.034287f, -0.186133f, 0.121480f, 0.157157f, -0.138347f, -0.054228f, -0.211932f, 0.170092f, -0.017696f, -0.035660f, -0.069410f, 0.009072f, 0.107920f, -0.063087f, 0.063153f, 0.039433f, 0.014752f, 0.109931f, 0.041760f, -0.117528f, -0.012051f, 0.159906f, 0.149649f, 0.111666f, -0.074944f, -0.123085f, -0.024196f, -0.012586f, -0.156530f, -0.033664f, 0.086645f, -0.142436f, 0.179220f, 0.076763f, -0.002781f, 0.191587f, 0.005891f, 0.016650f, 0.151010f, -0.029776f, -0.205343f, 0.038153f, -0.074418f, -0.011205f, -0.041099f, -0.010381f, -0.064649f, 0.049102f, 0.179860f, -0.040505f, 0.176277f, -0.100478f, 0.030942f, 0.017906f, 0.071228f, -0.068742f, 0.194186f, -0.125055f, -0.119907f, -0.143565f, 0.046293f, 0.021659f, -0.173035f, 0.118411f, -0.141213f, 0.204326f, 0.174063f, 0.172674f, -0.045719f, 0.157834f, -0.084423f, 0.071699f, 0.041103f, -0.172828f, -0.084954f, -0.006458f, 0.005042f, -0.233670f, -0.152096f, -0.024421f, -0.063449f, -0.147238f, -0.061944f, 0.177976f, -0.011382f, 0.038770f, -0.044993f, -0.234906f, -0.122976f, -0.155037f, -0.166281f, 0.147137f, -0.224478f, -0.175726f, 0.192106f, 0.054053f, -0.059172f, 0.146920f, 0.091619f, 0.026020f, 0.133700f, -0.126559f, 0.158720f, -0.077034f, -0.070677f, -0.077320f, 0.044444f, 0.076911f, 0.047744f, -0.174165f, -0.381944f, 0.130807f, 0.086182f, 0.028194f, 0.143957f, -0.270802f, 0.045707f, -0.081608f, -0.078127f, 0.150466f, 0.025408f, 0.182591f, -0.099906f, -0.168874f, 0.138664f, 0.055527f, -0.038570f, -0.146805f, -0.209981f, -0.097016f, -0.115682f, -0.203307f, -0.144099f, 0.051531f, -0.004324f, -0.220746f, 0.085467f, 0.008553f, -0.004411f, -0.262745f, 0.193932f, 0.377426f, 0.145085f, 0.072534f, 0.362646f, 0.209950f, 0.011248f, -0.200682f, 0.376810f, -0.016272f, 0.196806f, 0.161494f, -0.057962f, -0.262498f, 0.015625f, -0.259461f, 0.234075f, -0.105912f, -0.336811f, -0.255772f, 0.080109f, -0.229139f, 0.199270f, -0.024172f, -0.514406f, 0.342504f, 0.398301f, -0.141229f, -0.055244f, -0.074886f, -0.247083f, -0.234714f, 0.185866f, -0.117201f, 0.343175f, -0.266450f, 0.198743f, -0.030316f, -0.050342f, 0.381736f, 0.081813f, -0.048889f, 0.310519f, -0.063236f, -0.277317f, 0.032754f, 0.111708f, 0.063840f, -0.145231f, 0.116814f, 0.080955f, 0.272201f, -0.238700f, -0.092452f, -0.039090f, 0.045016f, -0.195975f, -0.517200f, -0.235965f, -0.234366f, -0.177596f, -0.084177f, 0.044185f, 0.128418f, -0.097150f, -0.098550f, -0.278409f, -0.216478f, -0.335967f, -0.037959f, -0.035780f, 0.001200f, -0.118649f, -0.066431f, 0.081614f, -0.132310f, 0.092277f, -0.134857f, -0.135465f, 0.055485f, -0.114929f, -0.139773f, 0.001101f, 0.093145f, -0.164666f, -0.191720f, -0.203038f, -0.127900f, 0.046509f, 0.195716f, 0.069009f, -0.142854f, 0.126616f, 0.162147f, -0.161617f, 0.015037f, -0.215233f, -0.198948f, -0.176299f, -0.015096f, -0.110584f, -0.158670f, -0.185763f, 0.015698f, -0.003420f, 0.081176f, -0.144695f, -0.070535f, 0.060428f, 0.090966f, -0.219576f, 0.113550f, -0.228334f, -0.310890f, -0.005286f, -0.242753f, 0.052054f, -0.195785f, -0.280224f, 0.014380f, 0.129403f, 0.077332f, 0.190560f, 0.141136f, 0.154579f, 0.101354f, 0.243579f, -0.394310f, -0.012364f, 0.081798f, -0.021683f, 0.041823f, 0.334171f, 0.094403f, -0.275585f, -0.546449f, 0.114805f, -0.221055f, -0.145835f, -0.150863f, -0.116228f, 0.055490f, -0.039399f, -0.266916f, -0.059791f, -0.033388f, -0.152406f, -0.070923f, 0.272741f, -0.004721f, 0.284041f, -0.169892f, -0.222131f, 0.107447f, 0.284210f, 0.072553f, -0.285455f, 0.021329f, -0.639653f, -0.110845f, -0.025081f, -0.027713f, 0.442765f, -0.334447f, -0.119865f, -0.086442f, 0.209874f, -0.225284f, -0.040479f, -0.135936f, -0.020291f, -0.200938f, -0.476281f, 0.322461f, -0.024228f, -0.298459f, -0.070810f, 0.148976f, -0.061453f, -0.087872f, -0.056071f, -0.096930f, 0.053566f, 0.123941f, -0.135671f, -0.427103f, -0.555390f, 0.036589f, 0.176712f, -0.066233f, -0.186579f, 0.001903f, -0.143330f, 0.047028f, 0.078155f, -0.177820f, 0.127727f, 0.049178f, 0.128548f, -0.164452f, -0.203469f, -0.111371f, -0.033980f, 0.175217f, -0.064774f, 0.106717f, -0.146036f, -0.069576f, -0.167268f, -0.046904f, -0.065867f, 0.042973f, -0.242562f, 0.061594f, -0.090677f, -0.163904f, -0.101193f, -0.029084f, -0.090267f, 0.103017f, -0.045976f, 0.030174f, 0.052627f, 0.040358f, 0.106141f, 0.128034f, 0.151864f, 0.073523f, -0.067644f, 0.208835f, -0.095479f, 0.205441f, -0.148943f, -0.185236f, -0.156637f, -0.028901f, -0.117769f, -0.094046f, 0.064331f, 0.083355f, 0.177694f, 0.176531f, -0.105718f, -0.168643f, -0.102029f, -0.029293f, -0.192548f, -0.069390f, -0.082161f, 0.190746f, 0.213056f, -0.137552f, -0.059086f, 0.064661f, -0.153084f, 0.009437f, 0.002420f, -0.239938f, -0.203451f, -0.072332f, 0.008967f, -0.134493f, -0.262078f, 0.044415f, -0.032133f, -0.032005f, -0.137495f, -0.011568f, -0.186116f, -0.189108f, 0.103264f, -0.241768f, 0.022740f, -0.088264f, -0.124007f, -0.010157f, 0.083390f, -0.180186f, -0.089042f, -0.165171f, -0.183391f, 0.129495f, -0.169646f, 0.047680f, 0.121130f, -0.044997f, 0.012945f, 0.017548f, 0.028288f, 0.127270f, -0.208444f, -0.165504f, 0.043186f, 0.023101f, -0.229462f, -0.211544f, -0.098856f, -0.061496f, -0.124052f, 0.046866f, 0.050000f, -0.082492f, 0.036221f, -0.279695f, -0.180041f, 0.040279f, -0.234943f, -0.026753f, -0.194613f, -0.233015f, 0.034158f, -0.172505f, -0.034588f, 0.083529f, -0.103175f, -0.193861f, -0.092474f, 0.151204f, -0.119240f, 0.027483f, -0.042666f, 0.191528f, 0.097334f, -0.023099f, -0.139256f, -0.108886f, 0.104342f, 0.011063f, -0.090757f, -0.042865f, 0.141872f, 0.007402f, -0.121805f, 0.079748f, 0.056850f, 0.103408f, -0.207687f, 0.024044f, -0.144409f, -0.030077f, -0.108461f, 0.071956f, 0.039577f, -0.044708f, -0.208015f, 0.148215f, -0.177381f, -0.018261f, 0.020865f, -0.201578f, 0.033546f, -0.134979f, 0.019116f, 0.049101f, -0.045589f, -0.135750f, 0.102886f, -0.014265f, 0.002011f, -0.035415f, -0.014260f, -0.120945f, -0.018312f, -0.078171f, 0.199400f, -0.169000f, 0.135407f, 0.103680f, -0.123528f, 0.071296f, 0.150740f, 0.095063f, -0.105019f, -0.082550f, 0.077616f, -0.189768f, -0.201413f, 0.126182f, 0.160334f, -0.188247f, -0.070877f, -0.137147f, 0.051714f, 0.066108f, 0.068321f, 0.024795f, 0.177587f, 0.138615f, 0.083921f, -0.032502f, 0.092485f, 0.104415f, -0.012744f, 0.068458f, 0.113687f, -0.109827f, 0.054180f, 0.096162f, -0.043626f, 0.066096f, -0.073645f, -0.046447f, -0.027008f, 0.093344f, -0.008178f, -0.130205f, -0.006280f, -0.059577f, 0.001074f, 0.193136f, -0.186973f, -0.065323f, 0.068107f, 0.009617f, -0.191257f, 0.004085f, 0.177637f, -0.212806f, 0.108818f, -0.195810f, -0.132011f, -0.107930f, -0.196996f, -0.017684f, 0.034433f, -0.157887f, -0.103810f, -0.169074f, -0.135066f, 0.227854f, -0.038634f, 0.023427f, 0.103862f, 0.019304f, -0.035829f, -0.045657f, 0.092528f, -0.166713f, -0.224872f, -0.008948f, -0.107880f, 0.088492f, -0.133136f, -0.058602f, -0.133159f, -0.062102f, -0.193378f, 0.179473f, -0.221620f, -0.060490f, -0.072265f, -0.203716f, -0.264844f, -0.137520f, -0.016589f, -0.268614f, -0.247410f, -0.030926f, 0.036318f, -0.310067f, -0.263849f, 0.051949f, -0.181807f, -0.270996f, -0.037425f, 0.083451f, -0.170575f, -0.207289f, 0.310098f, -0.115260f, 0.063171f, 0.056204f, 0.166959f, -0.198932f, -0.034430f, -0.161928f, -0.197786f, -0.210755f, 0.134473f, 0.106225f, -0.251582f, -0.130729f, 0.033032f, 0.070259f, 0.009358f, 0.015760f, -0.173306f, -0.107064f, -0.019398f, -0.095145f, -0.031071f, -0.270364f, 0.175787f, 0.093761f, -0.100375f, -0.182442f, 0.040912f, -0.269852f, 0.084818f, -0.039246f, -0.200483f, -0.059302f, -0.025440f, -0.213855f, -0.210680f, 0.081180f, -0.134850f, 0.012886f, 0.140486f, 0.038968f, -0.174413f, -0.060571f, 0.403779f, 0.020150f, 0.144907f, 0.040495f, 0.168400f, -0.470433f, -0.031599f, 0.133957f, -0.086360f, 0.079670f, -0.157049f, 0.158416f, -0.069608f, -0.052390f, -0.123814f, 0.087459f, 0.039290f, 0.137679f, 0.102835f, 0.029081f, -0.080961f, 0.022005f, -0.007624f, 0.048383f, -0.157767f, -0.033677f, -0.164326f, -0.018872f, -0.127414f, 0.125814f, -0.187787f, -0.113300f, -0.108383f, 0.172207f, 0.004118f, -0.184105f, -0.071998f, 0.229112f, 0.145242f, 0.244824f, 0.161461f, 0.043362f, 0.100796f, 0.222848f, -0.087866f, -0.540681f, -0.003661f, 0.106064f, -0.099365f, 0.010455f, 0.092295f, 0.551787f, 0.188145f, -0.203543f, 0.208145f, -0.155142f, 0.151399f, -0.241865f, -0.691167f, -0.054187f, -0.109187f, 0.058534f, 0.071259f, -0.407332f, 0.286773f, 0.159666f, 0.028818f, 0.032110f, 0.206014f, 0.009745f, -0.033716f, 0.052255f, -0.199486f, 0.056874f, -0.048144f, -0.009606f, -0.065322f, 0.076793f, 0.060281f, -0.263611f, -0.092598f, 0.235891f, 0.148750f, 0.123432f, -0.190143f, 0.040334f, 0.049531f, 0.012504f, -0.388836f, 0.062552f, -0.002276f, -0.123994f, -0.105806f, 0.159776f, -0.003124f, 0.033073f, 0.143674f, -0.072218f, 0.265256f, -0.400525f, 0.114776f, -0.134627f, 0.013963f, -0.192341f, -0.176124f, 0.088928f, -0.195548f, -0.073330f, -0.103787f, 0.291049f, 0.081119f, -0.018504f, -0.153003f, 0.218567f, -0.081710f, 0.160471f, -0.133333f, 0.029267f, 0.145350f, 0.092750f, 0.168723f, -0.395939f, -0.049842f, -0.176946f, 0.235500f, -0.227309f, -0.214031f, 0.117693f, -0.046446f, 0.148148f, -0.013840f, 0.080548f, -0.158887f, 0.077246f, 0.146922f, -0.075642f, 0.042540f, -0.124986f, -0.205364f, -0.245212f, 0.036022f, -0.126570f, -0.229608f, 0.109227f, 0.128444f, 0.046445f, -0.031472f, 0.011053f, 0.244455f, -0.124831f, 0.139108f, 0.080118f, 0.062726f, -0.231531f, -0.136310f, 0.009717f, -0.164987f, 0.103933f, -0.041855f, -0.012580f, -0.063350f, 0.150239f, 0.193165f, 0.084280f, -0.171896f, -0.002716f, 0.057762f, -0.044216f, -0.032584f, 0.194103f, 0.161595f, 0.015178f, -0.053296f, 0.152272f, 0.141297f, -0.002955f, -0.085649f, 0.038167f, 0.032524f, 0.025129f, 0.069596f, -0.055803f, 0.133410f, 0.128544f, 0.195581f, -0.199844f, -0.035840f, -0.202821f, 0.046275f, 0.190669f, 0.142930f, -0.125745f, -0.214717f, 0.186611f, -0.121114f, -0.165357f, -0.175940f, 0.023880f, 0.064148f, 0.005273f, 0.114217f, -0.127474f, 0.212652f, 0.129962f, 0.112956f, -0.131581f, -0.101747f, 0.155723f, 0.156079f, -0.197808f, 0.100865f, -0.022027f, -0.042995f, -0.147594f, 0.159922f, -0.172893f, 0.064851f, 0.133448f, -0.073383f, 0.163967f, -0.084986f, -0.086419f, 0.197600f, -0.205325f, 0.058226f, 0.017773f, -0.104139f, -0.095175f, 0.068429f, 0.213966f, -0.124109f, 0.072574f, -0.149890f, 0.051896f, 0.211461f, -0.019175f, -0.161949f, 0.047827f, 0.038676f, -0.012056f, 0.151617f, -0.085926f, -0.020003f, 0.112552f, 0.102901f, -0.184669f, 0.114468f, -0.092271f, -0.209362f, -0.073541f, -0.023634f, -0.190345f, 0.146446f, 0.045156f, 0.012589f, -0.042867f, 0.087353f, -0.123112f, -0.181760f, 0.173900f, 0.113723f, 0.116939f, -0.090677f, 0.023665f, -0.009658f, 0.069630f, 0.068832f, 0.030090f, -0.038198f, -0.134022f, -0.126583f, 0.149556f, -0.132598f, -0.209480f, 0.190134f, -0.053055f, 0.159893f, 0.152762f, -0.107429f, -0.210016f, 0.105648f, -0.144832f, 0.077087f, -0.124058f, 0.036817f, 0.029003f, -0.157880f, -0.206533f, -0.132620f, -0.091793f, -0.010306f, -0.024130f, 0.121029f, 0.160014f, -0.109471f, 0.211568f, 0.201740f, 0.016684f, -0.210189f, 0.170697f, -0.027442f, 0.163734f, -0.151383f, -0.042501f, -0.182841f, -0.207183f, 0.167699f, -0.206561f, -0.017499f, 0.023319f, -0.068075f, 0.140910f, 0.063309f, 0.062276f, 0.178932f, 0.206339f, -0.179222f, 0.206836f, 0.180767f, 0.188354f, -0.112726f, 0.121646f, 0.019866f, -0.135454f, 0.214826f, -0.063658f, -0.062667f, -0.027526f, 0.076554f, -0.109929f, -0.063550f, -0.078316f, 0.176097f, -0.090764f, 0.013409f, 0.038542f, -0.120937f, 0.121461f, -0.179434f, 0.208715f, 0.095625f, -0.016054f, 0.040468f, 0.045887f, 0.150899f, 0.156707f, 0.056801f, 0.086180f, 0.136054f, 0.094424f, -0.157749f, -0.099389f, 0.203320f, -0.017773f, 0.171364f, 0.043395f, 0.004306f, 0.151591f, 0.064330f, 0.030829f, 0.206742f, 0.099893f, 0.085848f, 0.097041f, -0.102729f, 0.132559f, -0.035501f, -0.181734f, 0.115677f, 0.178386f, 0.193416f, -0.159050f, 0.198547f, -0.154679f, 0.124569f, 0.183710f, 0.043172f, -0.079530f, -0.028596f, -0.154809f, -0.207663f, -0.078837f, 0.013660f, -0.014360f, 0.031642f, 0.029726f, -0.174275f, -0.158350f, 0.038098f, -0.151391f, 0.101206f, -0.245795f, -0.270524f, 0.048245f, -0.089729f, -0.006975f, -0.005349f, -0.107108f, -0.202323f, -0.069924f, -0.345841f, -0.298057f, 0.102835f, -0.128598f, 0.257129f, 0.086834f, 0.010191f, -0.170963f, 0.098120f, -0.045525f, 0.004596f, 0.118325f, 0.068173f, 0.010373f, -0.052311f, 0.011445f, -0.152873f, 0.212894f, 0.230162f, -0.111556f, -0.034010f, 0.153031f, -0.000628f, -0.032833f, -0.055842f, -0.169048f, -0.063613f, 0.013303f, -0.180859f, 0.045007f, -0.137597f, -0.138629f, -0.176333f, -0.131085f, -0.026869f, -0.006866f, 0.020830f, -0.249723f, -0.025191f, -0.149597f, -0.038164f, -0.041138f, -0.088835f, 0.173909f, 0.815510f, -0.159693f, 0.007722f, -0.193155f, 0.109486f, -0.191123f, 0.134436f, -0.133896f, 0.063593f, -0.087551f, 0.142201f, 0.011581f, -0.012090f, -0.118487f, -0.186703f, -0.044231f, 0.113448f, -0.215006f, -0.168192f, -0.008506f, 0.171189f, -0.146728f, 0.117545f, 0.100328f, 0.075566f, 0.166467f, 0.030573f, -0.235000f, 0.049899f, -0.187774f, 0.051701f, 0.140104f, -0.011663f, 0.167165f, -0.063691f, 0.039059f, 0.165214f, 0.066070f, 0.083037f, 0.086070f, -0.003113f, 0.078739f, 0.113988f, -0.147212f, 0.105122f, 0.146998f, 0.125854f, 0.141560f, 0.089134f, 0.103101f, -0.149995f, -0.024132f, -0.015833f, -0.017241f, -0.140580f, 0.150928f, 0.147173f, -0.182118f, -0.026560f, -0.142493f, -0.185611f, 0.119320f, -0.094677f, 0.074315f, -0.134861f, 0.027215f, -0.144853f, -0.089661f, 0.118871f, -0.180514f, -0.066667f, 0.214000f, 0.028268f, -0.111889f, 0.150484f, 0.211118f, -0.100918f, 0.097444f, 0.154789f, 0.084204f, -0.172288f, -0.086811f, 0.109095f, -0.083511f, -0.034983f, 0.197918f, -0.165150f, -0.084584f, -0.034005f, -0.174400f, 0.012451f, 0.122009f, -0.152090f, 0.184745f, -0.058000f, -0.173514f, -0.182276f, 0.171960f, 0.201620f, -0.192804f, -0.078889f, -0.164632f, -0.035056f, -0.169493f, 0.198450f, -0.051751f, -0.161657f, 0.208550f, 0.125665f, -0.102672f, -0.113535f, 0.139135f, -0.069434f, 0.038222f, -0.160391f, 0.070037f, -0.043306f, 0.160622f, 0.085271f, -0.074361f, 0.142406f, -0.196557f, 0.033718f, -0.005203f, 0.099245f, -0.216397f, -0.030377f, -0.005575f, 0.166082f, -0.260088f, 0.186091f, 0.067174f, 0.129327f, -0.040977f, -0.206621f, -0.072860f, -0.091797f, -0.073037f, -0.115413f, -0.071144f, 0.083308f, 0.103695f, -0.017490f, -0.036106f, -0.170122f, -0.177013f, -0.096800f, 0.171932f, 0.074538f, -0.051718f, -0.011163f, 0.037465f, 0.024008f, 0.171626f, -0.195156f, 0.060574f, -0.063547f, -0.128474f, -0.020221f, -0.129749f, 0.019178f, -0.095101f, -0.158609f, -0.057696f, -0.179030f, 0.046089f, -0.128601f, 0.129358f, -0.116445f, -0.122265f, -0.314390f, 0.014753f, 0.177794f, -0.189116f, -0.158929f, -0.100255f, -0.068432f, -0.175827f, 0.072260f, 0.169873f, 0.149184f, -0.044989f, -0.082054f, -0.013743f, -0.001896f, -0.059192f, -0.296033f, -0.165924f, 0.132465f, 0.004168f, -0.044290f, -0.031810f, -0.021204f, -0.120479f, -0.061808f, -0.057904f, -0.027352f, 0.209999f, 0.023312f, 0.014923f, -0.124787f, 0.088621f, -0.159965f, -0.030598f, -0.065850f, 0.042692f, -0.110142f, 0.152356f, 0.203435f, -0.163034f, 0.053919f, 0.133748f, 0.002597f, -0.067668f, -0.153859f, 0.016951f, -0.055371f, 0.199194f, -0.170655f, -0.140581f, -0.058960f, 0.078718f, -0.179411f, -0.062463f, -0.169936f, -0.190479f, -0.061222f, -0.185862f, 0.082969f, -0.032388f, -0.121134f, -0.076569f, 0.009552f, 0.047843f, 0.007261f, -0.210684f, -0.150081f, -0.000663f, 0.209988f, -0.032764f, 0.041147f, -0.202032f, -0.094861f, -0.156396f, 0.102022f, -0.026828f, 0.062180f, -0.035431f, 0.202884f, 0.014562f, 0.088806f, 0.090392f, 0.021062f, -0.017473f, 0.127958f, 0.207927f, -0.169416f, -0.185505f, 0.208957f, 0.093411f, -0.190907f, -0.087290f, -0.085901f, 0.084132f, -0.137218f, -0.168202f, -0.164649f, -0.210591f, 0.140296f, -0.187577f, 0.133681f, -0.132974f, 0.074170f, -0.109310f, 0.138743f, -0.161630f, -0.059757f, -0.050854f, 0.160109f, -0.044546f, 0.034302f, -0.040491f, -0.107945f, -0.063254f, -0.138867f, -0.124926f, -0.138752f, -0.138473f, 0.210969f, -0.005819f, -0.039299f, -0.056803f, -0.213923f, -0.192914f, 0.158632f, -0.026466f, -0.118014f, 0.034685f, -0.090625f, -0.108543f, 0.089111f, 0.051826f, -0.050195f, 0.180424f, -0.130419f, 0.016537f, -0.118546f, 0.169733f, -0.120297f, 0.164248f, -0.127048f, 0.085890f, -0.020019f, 0.026022f, 0.196244f, 0.053600f, 0.071445f, -0.054511f, -0.010710f, -0.159005f, 0.060588f, -0.036860f, 0.189494f, -0.343987f, -0.057078f, -0.103376f, -0.108673f, -0.040113f, 0.160924f, 0.174272f, -0.035319f, -0.278860f, -0.330256f, 0.033192f, 0.110133f, 0.066422f, -0.302199f, -0.149387f, -0.014493f, -0.053957f, 0.237742f, -0.025171f, -0.448635f, -0.214086f, 0.254879f, -0.125022f, 0.110083f, 0.106093f, -0.355034f, -0.027969f, -0.025972f, -0.392512f, -0.060033f, -0.121754f, -0.136581f, -0.079313f, 0.063448f, -0.192117f, -0.063035f, -0.167672f, -0.191098f, -0.141390f, -0.129156f, -0.211339f, 0.173743f, -0.208993f, 0.037770f, -0.024216f, 0.122386f, 0.124303f, 0.085391f, 0.307934f, 0.133556f, -0.124212f, -0.548564f, -0.089271f, -0.090081f, 0.090911f, -0.035699f, 0.099883f, 0.025337f, 0.053218f, -0.945915f, 0.122066f, -0.073902f, -0.127685f, 0.135068f, 0.073095f, -0.084398f, 0.139160f, 0.173219f, -0.129229f, 0.112679f, -0.088910f, 0.114978f, -0.148929f, -0.099598f, -0.210174f, 0.065531f, 0.062769f, -0.135901f, 0.086228f, -0.055007f, 0.018176f, 0.132682f, 0.038757f, -0.153125f, 0.160029f, 0.069494f, 0.041905f, -0.136807f, 0.160218f, 0.098482f, 0.148608f, 0.044767f, -0.189515f, 0.089134f, 0.012397f, -0.084423f, -0.133391f, -0.143732f, 0.220090f, 0.182083f, 0.129960f, 0.076008f, -0.169627f, -0.068660f, -0.018044f, 0.165865f, -0.191443f, -0.008385f, -0.125042f, -0.006571f, 0.088935f, 0.039446f, 0.018716f, 0.076886f, -0.104018f, -0.208106f, 0.077848f, 0.044186f, -0.104974f, -0.192336f, -0.171685f, 0.115981f, -0.079979f, 0.173653f, -0.175672f, 0.153034f, -0.282942f, -0.030656f, 0.119603f, -0.006804f, 0.025090f, 0.201208f, 0.033263f, -0.135050f, -0.231717f, -0.264077f, -0.134583f, -0.139410f, -0.205335f, 0.092372f, -0.076597f, -0.181405f, -0.170346f, 0.172310f, -0.072185f, 0.082454f, -0.069085f, 0.060931f, -0.272856f, 0.138712f, 0.016710f, -0.240925f, 0.041374f, 0.093366f, 0.056091f, -0.039899f, -0.226257f, 0.029373f, -0.099889f, -0.140389f, -0.343280f, -0.209423f, -0.018108f, -0.047336f, 0.062443f, -0.144830f, 0.029675f, -0.169418f, 0.094832f, 0.124354f, -0.130179f, -0.067948f, -0.278661f, -0.153286f, -0.168636f, -0.229031f, -0.072358f, 0.110343f, 0.053213f, -0.161058f, 0.128167f, -0.088645f, 0.055390f, -0.216800f, -0.070472f, -0.152599f, 0.167414f, -0.151880f, -0.108643f, -0.085689f, -0.208886f, -0.098985f, 0.086549f, 0.154477f, 0.111039f, -0.142570f, 0.131400f, 0.076417f, 0.031790f, -0.000594f, -0.111442f, -0.206041f, -0.121583f, -0.158647f, -0.069516f, -0.005912f, 0.114194f, 0.172181f, 0.167198f, -0.013418f, 0.090537f, -0.060514f, -0.021670f, 0.017674f, -0.100698f, -0.065327f, 0.187674f, -0.089440f, 0.125579f, 0.203044f, 0.090290f, -0.035549f, 0.210369f, 0.127096f, 0.193570f, -0.154618f, -0.001723f, -0.129369f, 0.053595f, 0.070550f, 0.164594f, -0.059734f, -0.137218f, 0.114836f, -0.152331f, -0.069634f, -0.023555f, 0.007023f, 0.118161f, -0.014837f, 0.110789f, -0.065530f, -0.037311f, -0.019582f, 0.139206f, 0.119051f, 0.193435f, -0.211449f, -0.143303f, 0.171963f, -0.129065f, 0.004089f, -0.081560f, -0.162303f, -0.282093f, 0.111560f, -0.095620f, -0.036474f, -0.025108f, -0.268515f, -0.119981f, 0.189853f, 0.050051f, -0.124973f, -0.247787f, -0.027232f, -0.045711f, -0.157148f, -0.244921f, -0.122188f, -0.263295f, -0.049614f, -0.083912f, -0.214644f, -0.258824f, -0.417008f, 0.038324f, 0.231068f, -0.107229f, -0.138518f, -0.150814f, 0.078208f, 0.115986f, -0.030156f, -0.275952f, -0.236971f, -0.086847f, 0.083909f, 0.093967f, 0.051549f, -0.155112f, 0.165479f, 0.121026f, -0.182061f, -0.262870f, -0.307748f, -0.298152f, -0.402094f, -0.026947f, -0.326247f, -0.106732f, -0.204487f, 0.062478f, -0.308977f, -0.013376f, -0.018951f, 0.137148f, -0.334525f, -0.146583f, 0.001755f, 0.001050f, -0.156772f, -0.109206f, -0.215577f, 0.147689f, -0.316801f, -0.117309f, 0.104545f, -0.110566f, -0.206683f, 0.188620f, -0.134733f, -0.188004f, 0.022477f, -0.209655f, 0.132456f, -0.098917f, 0.020607f, -0.166698f, -0.166169f, 0.127107f, 0.147309f, 0.180014f, -0.020547f, -0.161780f, -0.040505f, -0.024177f, 0.093295f, 0.178187f, 0.146093f, -0.103931f, -0.062452f, 0.037072f, -0.186508f, -0.117191f, -0.095016f, -0.138619f, 0.006339f, 0.052066f, 0.004059f, 0.008127f, -0.150694f, -0.082351f, 0.085857f, -0.108041f, -0.027148f, -0.112813f, -0.079584f, -0.194226f, 0.013055f, -0.083838f, -0.161179f, -0.201596f, -0.173855f, -0.112521f, 0.039600f, 0.191059f, -0.183198f, 0.058504f, 0.230478f, 0.243486f, -0.115068f, 0.074702f, 0.101357f, 0.193509f, 0.056927f, -0.173701f, -0.206402f, 0.111545f, -0.138217f, -0.213757f, 0.074372f, 0.057978f, -0.013365f, 0.139526f, -0.151132f, -0.084804f, -0.286983f, -0.056836f, -0.028210f, -0.020549f, 0.159879f, -0.238263f, -0.029034f, 0.005827f, 0.014386f, 0.043719f, -0.193058f, -0.154184f, 0.088329f, -0.065982f, 0.106401f, -0.087535f, -0.058405f, -0.216598f, -0.063277f, -0.166583f, 0.054886f, -0.002786f, -0.004341f, 0.085605f, -0.049369f, -0.260102f, -0.047657f, 0.048998f, 0.053094f, -0.160439f, -0.037419f, 0.057757f, -0.215323f, -0.041481f, -0.103305f, 0.075107f, 0.164901f, -0.229916f, -0.239608f, -0.045910f, 0.102588f, -0.195120f, -0.109949f, 0.071901f, -0.070472f, -0.102824f, 0.099905f, 0.023786f, -0.038752f, -0.016567f, 0.126679f, -0.064284f, 0.146823f, 0.020683f, -0.113725f, 0.054652f, 0.119677f, -0.044263f, 0.125308f, -0.030643f, -0.128603f, -0.105801f, -0.072593f, 0.039571f, -0.204138f, 0.112556f, -0.201262f, 0.060622f, -0.058242f, 0.122431f, -0.181574f, 0.089822f, -0.063579f, -0.011665f, -0.103413f, -0.152838f, 0.207697f, 0.061820f, -0.065093f, 0.053145f, 0.032862f, -0.093258f, -0.069660f, 0.068604f, 0.159906f, -0.154466f, -0.153859f, 0.057797f, -0.036221f, -0.059465f, 0.004464f, -0.104663f, 0.095292f, 0.177810f, -0.175999f, -0.129851f, -0.105978f, 0.172190f, -0.015630f, -0.066732f, -0.064716f, 0.007393f, -0.204617f, -0.120043f, 0.123569f, 0.141926f, 0.056553f, -0.065871f, -0.112012f, 0.036459f, -0.148895f, -0.009640f, 0.079853f, 0.112365f, 0.129194f, 0.045450f, 0.099298f, -0.157654f, 0.050419f, 0.115372f, 0.149747f, 0.066570f, -0.052321f, 0.131198f, 0.025596f, -0.001578f, 0.041769f, -0.019605f, 0.117190f, 0.017846f, 0.041723f, -0.122236f, 0.162417f, 0.013896f, -0.211832f, -0.148863f, -0.144615f, 0.154600f, 0.092171f, -0.205869f, -0.058236f, 0.160870f, -0.112774f, -0.109013f, -0.092073f, -0.056194f, 0.146963f, -0.056769f, -0.183969f, -0.221018f, -0.093674f, -0.215062f, 0.106257f, -0.150139f, -0.161352f, 0.012833f, 0.176108f, 0.144655f, 0.008969f, 0.000250f, -0.081738f, -0.052870f, -0.082108f, -0.015972f, 0.161395f, -0.137714f, -0.171523f, 0.032236f, -0.030464f, 0.162085f, 0.128419f, 0.111209f, 0.074196f, -0.124978f, 0.014960f, 0.033903f, -0.236166f, -0.111645f, -0.102154f, -0.078143f, -0.115771f, 0.070626f, 0.045872f, -0.098445f, 0.159551f, -0.125559f, 0.004599f, -0.008022f, -0.105780f, -0.033075f, -0.120797f, 0.235595f, 0.199639f, -0.140242f, -0.032505f, -0.085177f, 0.021695f, -0.030960f, 0.155434f, -0.108290f, -0.118956f, -0.186572f, 0.061090f, 0.082418f, 0.004786f, 0.184068f, 0.085884f, 0.112899f, 0.012550f, -0.148934f, 0.064364f, -0.109887f, -0.175488f, -0.045915f, -0.149050f, 0.102124f, 0.110042f, 0.058365f, 0.131173f, -0.179698f, -0.156643f, 0.033750f, -0.030494f, -0.205603f, 0.228588f, 0.143073f, -0.106647f, 0.101464f, 0.211403f, -0.190843f, -0.093064f, -0.115032f, -0.227380f, 0.151568f, -0.039001f, -0.002583f, -0.148850f, -0.100098f, -0.092501f, 0.077517f, 0.152983f, -0.148781f, 0.017071f, -0.220329f, -0.142879f, 0.182190f, -0.134101f, 0.111742f, -0.114830f, -0.018994f, -0.233344f, -0.036081f, -0.265478f, 0.167877f, 0.140986f, -0.340360f, 0.080604f, 0.043214f, -0.356997f, -0.139646f, -0.014003f, 0.205867f, 0.173527f, -0.148114f, -0.202033f, -0.173407f, -0.040434f, -0.250884f, -0.120968f, 0.054501f, 0.085010f, -0.304727f, 0.199850f, -0.145847f, -0.171035f, -0.064327f, -0.147187f, -0.321555f, 0.049295f, -0.306833f, -0.123471f, 0.214797f, 0.113150f, -0.069615f, 0.033337f, 0.062288f, -0.223827f, -0.203063f, -0.433052f, -0.010690f, -0.159699f, 0.089982f, 0.103776f, -0.181886f, 0.038347f, -0.049999f, -0.143208f, 0.085951f, 0.143137f, -0.115195f, -0.309169f, -0.042207f, -0.045903f, -0.306228f, 0.023653f, -0.196632f, 0.118140f, -0.025253f, -0.091706f, -0.112160f, -0.141604f, 0.064214f, 0.266735f};
static const float model_layer_2_biases[64] = {-0.086748f, -0.175455f, 0.321745f, -0.650058f, 0.155189f, -1.009960f, -0.288513f, 0.823602f, 0.004018f, -0.234850f, -0.407923f, -0.343848f, -0.267805f, 0.049173f, -0.976644f, -0.586640f, -0.419550f, -0.994280f, -0.100761f, -0.133742f, -1.049796f, -0.100653f, -0.242154f, 0.186806f, -0.567829f, -0.127130f, -0.057448f, 0.484201f, 0.134033f, 0.409652f, 0.688409f, -0.166496f, -0.335695f, -0.047257f, -0.033957f, -0.251079f, -0.007805f, -0.174713f, 0.026609f, -0.302730f, -0.224252f, 0.047806f, 0.221500f, -0.943845f, -0.277160f, -0.281642f, 0.447752f, -0.714381f, -0.456576f, -0.266865f, -0.123329f, -1.031790f, -0.129399f, 0.222589f, 0.482657f, -0.125268f, 0.222378f, 0.517752f, -0.190651f, -0.003447f, 0.222843f, -0.702103f, -0.192271f, -1.015745f};
static const float model_layer_2_weights[4096] = {0.069384f, -0.174692f, -0.130540f, -0.114319f, -0.133154f, -0.029747f, 0.006880f, -0.155736f, -0.012325f, 0.032170f, 0.133673f, 0.069860f, -0.213498f, 0.113467f, 0.123463f, -0.025227f, -0.031328f, -0.080522f, -0.185229f, -0.030552f, -0.065549f, 0.215133f, -0.091972f, 0.002607f, 0.015417f, -0.176108f, -0.062276f, 0.147115f, -0.055430f, 0.156667f, -0.058597f, 0.130029f, 0.162686f, 0.145565f, -0.096073f, 0.016102f, 0.141025f, -0.090979f, 0.032055f, -0.113516f, -0.153072f, 0.153671f, -0.108614f, 0.127118f, 0.002076f, 0.050818f, 0.154813f, 0.121326f, 0.073133f, -0.114590f, 0.169383f, -0.059705f, -0.110199f, 0.197194f, -0.009207f, 0.005855f, -0.162793f, -0.166644f, 0.165916f, -0.017505f, -0.086086f, -0.044210f, 0.058362f, 0.102774f, 0.190234f, 0.103073f, 0.103421f, -0.026008f, -0.021119f, 0.131864f, -0.038823f, -0.093095f, 0.068484f, -0.073557f, -0.016854f, -0.075820f, 0.029315f, 0.012028f, -0.111660f, 0.137076f, -0.029110f, 0.031813f, 0.069314f, -0.178778f, 0.012074f, -0.102262f, 0.267136f, -0.068401f, 0.074772f, 0.000209f, -0.078400f, -0.176573f, -0.134792f, -0.128604f, -0.131042f, -0.031480f, 0.009870f, -0.115848f, -0.158637f, 0.076674f, -0.141815f, -0.147213f, 0.085111f, 0.106928f, -0.221736f, -0.100841f, 0.105855f, 0.237856f, 0.066717f, -0.018933f, 0.206000f, 0.088640f, 0.188123f, 0.212500f, -0.140875f, 0.144499f, -0.010850f, 0.001534f, -0.187576f, 0.120147f, 0.156562f, -0.148910f, -0.067617f, -0.016115f, 0.223443f, 0.200832f, 0.063940f, -0.086772f, -0.205426f, 0.034787f, 0.093806f, -0.182492f, -0.098845f, 0.054636f, 0.133064f, 0.137665f, -0.042212f, -0.106598f, 0.091279f, 0.045319f, -0.135285f, 0.074025f, -0.157584f, 0.090265f, -0.028954f, 0.166109f, -0.152825f, -0.085739f, -0.190269f, 0.155928f, 0.291364f, 0.173976f, 0.124641f, 0.173377f, 0.243531f, 0.161226f, 0.052420f, -0.139711f, -0.048474f, 0.153340f, 0.122431f, -0.111875f, -0.178141f, -0.112212f, 0.012895f, 0.092344f, -0.028393f, -0.205910f, 0.012419f, 0.158006f, 0.016003f, -0.196905f, 0.200819f, 0.035099f, -0.043533f, 0.077753f, -0.201547f, -0.237428f, 0.073431f, 0.126927f, 0.039886f, 0.127004f, -0.077842f, 0.082168f, -0.043945f, -0.096044f, 0.041230f, 0.086407f, 0.170418f, 0.047376f, 0.074929f, 0.132850f, -0.024567f, -0.208421f, 0.133120f, -0.108852f, 0.081421f, 0.032200f, -0.185738f, -0.082000f, 0.211645f, 0.076298f, -0.195546f, 0.148121f, 0.024067f, 0.041544f, -0.154835f, -0.136910f, -0.208646f, -0.330395f, 0.080063f, -0.214006f, 0.084048f, 0.220729f, 0.001747f, 0.412001f, 0.108614f, 0.197418f, -0.194823f, 0.136258f, 0.034131f, -0.043814f, -0.130501f, -0.019845f, 0.134980f, 0.166141f, 0.114118f, 0.201686f, -0.104073f, 0.214133f, -0.112595f, 0.056035f, -0.122009f, 0.164591f, 0.194987f, -0.213368f, -0.223996f, 0.023967f, 0.109053f, -0.074626f, 0.035997f, 0.051185f, 0.048495f, 0.074502f, -0.187807f, 0.036467f, 0.002455f, 0.138808f, 0.306483f, 0.517694f, 0.157434f, -0.035029f, -0.228043f, 0.143325f, 0.152168f, 0.032772f, -0.118435f, 0.040145f, 0.069160f, -0.030757f, -0.136283f, 0.219283f, -0.125564f, 0.018923f, -0.148017f, -0.177894f, -0.208269f, -0.256471f, -0.182265f, -0.294775f, 0.188096f, 0.043987f, -0.267863f, 0.102830f, -0.045557f, -0.069153f, 0.159898f, -0.257460f, -0.157804f, 0.021427f, 0.000544f, -0.130782f, -0.092711f, -0.280757f, -0.281751f, -0.072510f, 0.103008f, -0.111611f, -0.009092f, 0.113289f, 0.032821f, -0.065738f, -0.137449f, -0.092423f, -0.035340f, -0.006346f, -0.070225f, 0.071866f, 0.057466f, -0.019264f, 0.002055f, -0.220311f, 0.112458f, -0.053740f, 0.046590f, 0.102402f, -0.163037f, 0.250196f, -0.258680f, 0.015782f, 0.160895f, -0.123286f, -0.001168f, 0.084643f, -0.172164f, -0.157885f, -0.553651f, 0.205209f, -0.167202f, 0.228056f, -0.136627f, 0.064853f, -0.078263f, -0.113953f, 0.162614f, 0.004742f, -0.241590f, -0.083641f, -0.075951f, -0.051165f, -0.193946f, -0.375196f, -0.233930f, 0.098549f, -0.114018f, -0.192005f, -0.170064f, 0.144962f, 0.200190f, -0.075711f, -0.326737f, -0.034044f, -0.015947f, 0.362217f, 0.104050f, -0.070555f, 0.200205f, -0.429728f, 0.342223f, 0.231007f, -0.090820f, -0.129156f, 0.119215f, -0.139295f, -0.060254f, -0.058741f, 0.126411f, -0.214246f, 0.042689f, 0.052721f, -0.216763f, 0.277183f, 0.149053f, -0.363102f, 0.078230f, -0.254991f, -0.142541f, -0.102670f, 0.016508f, -0.068490f, -0.130911f, -0.208555f, -0.168586f, -0.086434f, -0.071501f, -0.058026f, -0.059325f, 0.270669f, -0.250870f, 0.163014f, -0.331314f, -0.182217f, -0.095426f, -0.300099f, -0.101062f, -0.015892f, 0.100533f, -0.198272f, 0.027597f, -0.082904f, -0.265820f, 0.216923f, 0.143852f, 0.213464f, 0.057682f, 0.175478f, 0.055987f, -0.223266f, -0.144474f, -0.077404f, 0.198225f, 0.073033f, 0.087112f, -0.109809f, 0.050432f, -0.170248f, 0.032743f, 0.421557f, 0.016425f, 0.149557f, -0.014247f, 0.229561f, 0.176381f, -0.070629f, 0.173220f, -0.131682f, 0.141226f, 0.127321f, -0.055039f, 0.033213f, -0.297801f, -0.084421f, 0.064482f, -0.082197f, 0.046602f, 0.237125f, -0.105503f, -0.005862f, -0.222019f, 0.052990f, 0.147360f, -0.113948f, 0.334294f, 0.124050f, 0.263816f, 0.081925f, 0.264410f, 0.062564f, -0.124087f, 0.339389f, 0.205699f, -0.087680f, 0.012551f, 0.077977f, -0.122415f, -0.131625f, 0.013326f, 0.184129f, -0.103608f, -0.207727f, -0.018423f, 0.128856f, 0.206178f, 0.087289f, 0.021149f, 0.105738f, 0.127170f, 0.151463f, 0.165884f, 0.031980f, -0.001643f, 0.238297f, -0.097752f, 0.152502f, -0.196005f, -0.199051f, 0.241383f, 0.086554f, -0.150225f, 0.170928f, -0.093677f, 0.330889f, -0.080204f, -0.138179f, 0.418219f, -0.164010f, 0.599380f, -0.051859f, 0.192580f, -0.044288f, -0.062076f, 0.131833f, -0.227050f, -0.227856f, 0.057320f, 0.005535f, -0.048727f, 0.108092f, -0.263579f, 0.194096f, 0.223382f, 0.096184f, -0.182382f, 0.068974f, -0.271084f, 0.175435f, 0.195514f, 0.241407f, 0.390436f, -0.106189f, -0.119858f, 0.304972f, 0.505042f, -0.003718f, -0.078945f, 0.330687f, 0.088398f, 0.317314f, 0.211470f, 0.075718f, -0.135709f, 0.151140f, -0.048107f, 0.200733f, -0.145552f, 0.031055f, -0.108276f, -0.196937f, 0.090430f, 0.187716f, -0.144291f, 0.012568f, -0.171616f, -0.171348f, -0.164773f, 0.063408f, 0.124538f, -0.074297f, 0.173624f, -0.030907f, 0.176291f, -0.079290f, 0.040785f, 0.014260f, 0.112269f, -0.054926f, 0.146321f, 0.153549f, 0.164654f, -0.103303f, 0.053279f, -0.118046f, -0.025807f, 0.186390f, 0.078286f, 0.016632f, 0.109908f, -0.057219f, 0.198809f, 0.091827f, -0.187660f, 0.049021f, -0.193635f, 0.187886f, -0.067303f, -0.070128f, -0.130156f, 0.113748f, -0.157001f, -0.103807f, 0.119845f, 0.117878f, -0.173776f, -0.009967f, -0.082387f, -0.086871f, -0.010369f, 0.187179f, 0.186647f, -0.041940f, 0.207143f, 0.041773f, 0.157645f, 0.011983f, 0.066463f, 0.060622f, -0.077839f, 0.022759f, 0.059631f, -0.308640f, -0.157610f, -0.221167f, 0.073967f, -0.175012f, 0.285786f, -0.066703f, -0.193248f, -0.021320f, 0.210343f, 0.304775f, -0.129161f, -0.177281f, -0.073505f, 0.139824f, 0.091234f, 0.046915f, -0.006754f, 0.211056f, 0.109762f, 0.097865f, -0.137885f, 0.010821f, 0.057932f, -0.219850f, 0.499078f, 0.065639f, -0.090880f, -0.157624f, -0.203861f, 0.011191f, 0.138166f, -0.220357f, -0.237551f, 0.021095f, -0.070704f, 0.243291f, -0.184655f, 0.537050f, 0.225563f, -0.033119f, -0.255533f, 0.480360f, 0.229789f, -0.067967f, 0.635380f, 0.241950f, 0.145708f, -0.005707f, 0.196074f, -0.155480f, 0.021946f, 0.091020f, 0.030945f, 0.222310f, -0.015749f, 0.376818f, 0.216370f, -0.092603f, 0.040165f, 0.048683f, -0.151208f, -0.138186f, -0.052484f, 0.079353f, -0.226776f, -0.096449f, -0.121968f, 0.134496f, 0.109047f, -0.092864f, -0.312826f, 0.041225f, -0.105046f, -0.250159f, -0.105829f, -0.013938f, 0.154308f, 0.180800f, -0.283765f, -0.143263f, 0.060807f, -0.040972f, -0.178101f, -0.031833f, -0.155873f, 0.019280f, -0.102180f, 0.233869f, 0.093286f, 0.015085f, 0.125271f, -0.205122f, -0.069330f, -0.128707f, 0.034398f, 0.141922f, 0.009268f, 0.024148f, -0.180404f, -0.060290f, 0.080998f, 0.025859f, 0.006974f, -0.098938f, -0.192346f, -0.139932f, 0.039172f, -0.114463f, 0.004221f, -0.111447f, 0.130351f, 0.040396f, 0.059773f, 0.096644f, 0.056024f, -0.252032f, -0.126434f, -0.043101f, -0.051189f, -0.173110f, -0.096395f, -0.054874f, -0.090148f, -0.077754f, 0.185282f, 0.011452f, -0.162435f, -0.020614f, -0.288318f, -0.097214f, 0.065567f, 0.066834f, -0.091534f, 0.161294f, -0.077234f, -0.261998f, -0.254805f, 0.114279f, -0.140319f, 0.145217f, 0.144085f, -0.165139f, 0.063528f, -0.156147f, -0.001270f, -0.168007f, 0.134562f, 0.011714f, -0.171140f, -0.067118f, -0.045547f, -0.101984f, 0.152999f, 0.146842f, -0.058776f, -0.109679f, 0.121455f, 0.046430f, -0.175132f, 0.156912f, 0.192438f, -0.080888f, -0.127885f, -0.205556f, -0.124266f, -0.279114f, 0.181193f, 0.162759f, -0.076370f, 0.065762f, -0.112857f, -0.140985f, -0.237738f, -0.128232f, -0.309649f, 0.190973f, -0.185102f, -0.000120f, 0.148113f, -0.249974f, -0.027329f, -0.083702f, -0.181488f, -0.184814f, -0.162166f, -0.075740f, 0.017232f, -0.056828f, -0.071693f, 0.012275f, -0.178171f, -0.037965f, 0.355914f, -0.048779f, -0.057802f, 0.300950f, 0.053099f, -0.163014f, -0.283216f, 0.053682f, 0.038374f, 0.510864f, -0.335005f, -0.036631f, -0.004191f, 0.061873f, -0.066753f, 0.012898f, -0.100535f, -0.220156f, 0.049547f, 0.306875f, -0.026207f, -0.257031f, 0.506866f, -0.391249f, 0.692216f, 0.369528f, 0.032480f, -0.110481f, -0.210909f, 0.108385f, 0.218236f, -0.138988f, 0.375061f, -0.009876f, 0.129075f, 0.586121f, -0.135039f, 0.405916f, -0.046867f, -0.006722f, 0.117109f, 0.136533f, -0.297926f, -0.040554f, -0.170199f, 0.171271f, 0.479263f, 0.129194f, -0.107937f, 0.118004f, 0.161229f, -0.273555f, 0.430697f, 0.160273f, -0.189108f, 0.526211f, -0.119247f, -0.067338f, -0.048982f, -0.171091f, -0.110306f, 0.018782f, -0.048445f, -0.242314f, 0.188232f, 0.042298f, 0.140320f, -0.043200f, -0.209122f, -0.018101f, 0.134700f, -0.070182f, -0.083756f, 0.229975f, -0.113782f, 0.050815f, -0.145530f, 0.010925f, 0.018857f, -0.196930f, 0.104580f, -0.502130f, -0.095502f, 0.047224f, 0.035601f, 0.106753f, 0.123127f, 0.055717f, -0.027286f, -0.198315f, -0.102707f, -0.165683f, 0.010358f, 0.202107f, -0.186488f, -0.233110f, -0.127868f, -0.006045f, -0.213846f, 0.505698f, 0.183704f, -0.095390f, 0.309238f, -0.104134f, -0.148187f, 0.042464f, 0.084852f, -0.070292f, 0.050327f, 0.311466f, 0.183581f, -0.026406f, -0.019687f, -0.190509f, 0.272667f, -0.078491f, 0.062700f, -0.023172f, 0.187033f, 0.319198f, 0.243550f, -0.087728f, 0.031741f, 0.093060f, 0.170819f, -0.204273f, 0.101774f, 0.114697f, 0.013985f, -0.095779f, 0.053843f, -0.055298f, -0.186475f, 0.104293f, 0.038788f, 0.008032f, -0.155037f, 0.062030f, 0.047852f, 0.091406f, 0.064739f, 0.114382f, 0.056423f, 0.007772f, 0.058833f, 0.065082f, 0.108240f, 0.042142f, -0.143386f, 0.147626f, -0.078184f, -0.091620f, -0.186669f, -0.099754f, 0.160803f, 0.162202f, -0.134869f, -0.120712f, 0.138053f, -0.074923f, 0.133233f, 0.126807f, 0.108088f, 0.213568f, -0.129930f, -0.212288f, -0.077693f, -0.006751f, -0.145602f, 0.254668f, -0.120676f, 0.197585f, -0.153562f, -0.126613f, -0.132608f, 0.109736f, -0.214833f, 0.191860f, -0.219906f, 0.144247f, 0.175112f, 0.107481f, 0.115314f, 0.112714f, 0.050062f, 0.278211f, -0.162458f, -0.104886f, -0.039225f, 0.115752f, -0.109192f, -0.146813f, -0.030919f, -0.033645f, 0.003920f, -0.090406f, -0.203401f, 0.020355f, -0.109092f, 0.032998f, 0.135441f, -0.017467f, -0.173409f, 0.217186f, 0.066487f, 0.072221f, 0.137710f, 0.132167f, -0.086678f, -0.200086f, 0.072187f, 0.090025f, 0.129444f, 0.007450f, 0.097900f, -0.121272f, 0.067889f, 0.005665f, -0.111313f, -0.198759f, -0.160466f, 0.135383f, 0.008946f, 0.181232f, -0.129806f, 0.057941f, 0.076640f, -0.016151f, 0.206431f, -0.027695f, 0.068131f, -0.117621f, 0.077891f, 0.150116f, -0.076774f, -0.036943f, -0.031333f, -0.077135f, 0.129288f, -0.106250f, 0.194659f, -0.178086f, 0.066471f, 0.207270f, -0.189704f, -0.184880f, -0.104783f, -0.161684f, -0.045012f, 0.191305f, -0.214763f, 0.027200f, -0.210370f, -0.336530f, 0.073732f, -0.152911f, -0.123215f, -0.072621f, -0.217970f, -0.256020f, 0.243732f, -0.220186f, -0.068276f, -0.113880f, -0.021785f, 0.384965f, 0.187040f, 0.125652f, -0.132434f, -0.231251f, 0.501083f, 0.124072f, -0.054673f, 0.280830f, -0.301154f, -0.004386f, 0.043848f, 0.038120f, 0.411026f, -0.340029f, 0.463318f, -0.084134f, 0.121356f, -0.035403f, -0.086840f, 0.204271f, -0.112285f, -0.031805f, 0.062805f, -0.028631f, -0.047885f, 0.313702f, -0.130838f, 0.076173f, -0.143998f, -0.150506f, 0.006711f, -0.080279f, -0.066352f, 0.164076f, 0.008928f, -0.079663f, -0.255780f, 0.134615f, -0.112677f, -0.034160f, 0.223184f, 0.043943f, 0.046608f, 0.109176f, 0.072287f, 0.091946f, 0.143007f, 0.068696f, 0.131990f, -0.092373f, -0.039320f, -0.120908f, 0.168492f, 0.026736f, 0.295985f, 0.156362f, 0.020583f, -0.122525f, 0.128668f, -0.050345f, 0.000626f, 0.090477f, -0.204061f, -0.069033f, -0.028989f, 0.000680f, -0.155527f, -0.150115f, -0.057617f, -0.153074f, -0.047400f, 0.151808f, -0.030127f, 0.106310f, 0.045263f, -0.156225f, 0.103715f, -0.095634f, 0.275495f, 0.151788f, 0.193847f, 0.006368f, 0.034200f, 0.185970f, -0.199666f, -0.043120f, 0.077967f, -0.097802f, 0.041889f, -0.074631f, 0.195768f, -0.200180f, -0.067735f, 0.042274f, -0.126815f, -0.000882f, -0.178189f, -0.083020f, -0.068713f, -0.183865f, 0.314734f, 0.111106f, -0.008923f, -0.108013f, 0.172074f, 0.191473f, 0.063051f, 0.005060f, -0.056420f, 0.137904f, 0.217098f, 0.257455f, 0.007777f, 0.110333f, -0.147133f, -0.020919f, 0.054139f, -0.033272f, 0.174264f, 0.024171f, 0.136259f, -0.124674f, 0.015257f, -0.154681f, -0.022223f, -0.174503f, -0.019311f, -0.104938f, 0.035286f, 0.232949f, -0.269631f, 0.105859f, -0.146769f, -0.053071f, -0.144237f, -0.121558f, -0.172838f, -0.128551f, 0.133035f, -0.145160f, -0.011798f, -0.029822f, -0.096730f, -0.230499f, -0.038822f, -0.186381f, -0.212209f, -0.020555f, -0.030996f, -0.172957f, -0.174613f, -0.182208f, -0.087672f, 0.052747f, -0.029209f, 0.148161f, -0.047976f, 0.152729f, 0.046684f, -0.068673f, 0.236650f, -0.173470f, 0.184453f, 0.033704f, 0.183823f, -0.006835f, -0.029346f, -0.166566f, 0.242785f, 0.153728f, 0.144250f, -0.132362f, 0.168424f, -0.032236f, -0.036911f, -0.103425f, 0.171078f, -0.127951f, -0.067502f, 0.052254f, 0.085700f, -0.214398f, 0.081125f, 0.193139f, 0.387857f, -0.078655f, 0.040698f, -0.019641f, 0.070541f, 0.270447f, -0.062826f, 0.044120f, -0.108244f, 0.129091f, 0.032869f, 0.126303f, 0.066821f, 0.046126f, -0.119176f, -0.133296f, 0.188923f, 0.034754f, -0.069335f, 0.169132f, -0.143910f, -0.044963f, -0.080789f, -0.108019f, -0.172507f, -0.047006f, 0.088285f, 0.214292f, -0.165941f, -0.055887f, -0.058180f, 0.140961f, -0.149715f, 0.060890f, 0.210035f, 0.142979f, -0.192568f, 0.084318f, 0.171468f, 0.007146f, 0.062975f, -0.192674f, 0.156092f, 0.207621f, -0.052282f, 0.030811f, 0.019206f, 0.010046f, -0.206689f, -0.093940f, -0.167507f, -0.156806f, -0.034954f, 0.042330f, 0.054204f, 0.056525f, 0.206718f, 0.017814f, 0.082075f, -0.172564f, 0.043035f, 0.251874f, 0.013769f, 0.109798f, -0.232847f, 0.118668f, 0.304487f, 0.115266f, 0.045065f, -0.213981f, -0.140906f, 0.199075f, 0.258705f, 0.002209f, -0.108558f, -0.259106f, 0.023977f, -0.122237f, 0.104777f, 0.010564f, -0.224257f, -0.121888f, 0.106856f, 0.159345f, 0.215630f, -0.132509f, 0.152649f, -0.138824f, -0.132348f, -0.049130f, 0.235056f, -0.111256f, -0.004188f, -0.322816f, 0.162516f, -0.123836f, 0.259749f, 0.305285f, -0.022262f, -0.212143f, -0.080993f, -0.217744f, 0.015392f, -0.066400f, 0.136059f, 0.216417f, 0.093194f, 0.057289f, 0.197837f, -0.106558f, 0.153141f, -0.097702f, 0.092786f, -0.155399f, -0.150387f, 0.100382f, 0.136070f, 0.165953f, -0.054543f, 0.059346f, 0.014655f, -0.065621f, -0.198196f, 0.059818f, -0.119565f, 0.162487f, 0.003321f, -0.112369f, 0.115048f, -0.074122f, 0.042610f, -0.028507f, -0.241574f, 0.060308f, 0.078453f, -0.068177f, 0.066048f, -0.420840f, 0.054049f, 0.042928f, 0.041497f, 0.053345f, -0.042416f, -0.215593f, -0.172634f, 0.056141f, -0.072774f, -0.214749f, 0.047220f, -0.007463f, 0.037731f, -0.091970f, 0.051174f, -0.202950f, -0.415630f, -0.128750f, -0.234513f, -0.071634f, 0.027774f, 0.144654f, -0.180512f, 0.003966f, -0.086226f, 0.266256f, 0.011675f, 0.053576f, -0.119005f, -0.106180f, -0.279950f, -0.463275f, -0.363322f, 0.015590f, 0.096860f, -0.255530f, 0.056627f, -0.111135f, -0.082255f, 0.018729f, 0.047067f, 0.144666f, 0.007695f, 0.295001f, -0.192432f, -0.071093f, 0.199246f, 0.112885f, -0.198077f, 0.140220f, 0.037781f, 0.164001f, 0.108341f, -0.084864f, 0.101395f, 0.008902f, 0.101948f, 0.240446f, 0.085511f, 0.160096f, 0.167202f, -0.086056f, -0.185222f, 0.063619f, -0.051403f, -0.069259f, 0.103467f, -0.001295f, -0.027551f, 0.198358f, -0.064343f, 0.210775f, -0.208080f, -0.199035f, 0.199061f, -0.066142f, 0.116793f, -0.097523f, 0.152341f, -0.266509f, 0.012347f, -0.161480f, -0.185709f, -0.134550f, 0.021334f, -0.113342f, 0.291529f, 0.250292f, -0.081414f, -0.046258f, -0.218442f, -0.043414f, 0.046957f, 0.229692f, 0.006651f, 0.056249f, 0.168482f, -0.059554f, 0.093912f, 0.058945f, -0.210981f, 0.124742f, 0.000462f, 0.081246f, 0.032320f, -0.080474f, 0.112418f, 0.358944f, -0.008178f, -0.015585f, -0.133080f, -0.085416f, -0.071973f, -0.090405f, -0.160193f, -0.022359f, 0.228653f, 0.125405f, -0.293382f, 0.287535f, 0.136966f, -0.023959f, -0.055798f, 0.203943f, -0.323278f, 0.171584f, -0.018951f, -0.123503f, 0.040184f, 0.052072f, -0.152037f, -0.085491f, -0.119100f, -0.003916f, -0.149302f, 0.174239f, 0.100447f, -0.223062f, 0.224075f, -0.222079f, 0.328258f, 0.063971f, -0.089844f, 0.033493f, 0.025917f, -0.097667f, -0.191552f, 0.059368f, 0.034021f, -0.142513f, 0.143794f, 0.004767f, -0.197221f, 0.128198f, 0.074025f, 0.118827f, -0.229205f, -0.151132f, 0.173489f, -0.189483f, -0.089897f, -0.153358f, 0.262979f, 0.142878f, -0.118942f, 0.138592f, 0.213965f, -0.131421f, 0.007028f, 0.160945f, -0.144178f, 0.153028f, -0.054533f, -0.274742f, -0.196292f, -0.118629f, -0.176301f, 0.176402f, 0.028080f, -0.076040f, 0.393076f, -0.106624f, -0.004004f, 0.190274f, 0.098233f, -0.205986f, 0.028721f, -0.030666f, -0.069613f, 0.285479f, -0.156274f, -0.043212f, 0.190876f, -0.189943f, -0.052175f, 0.200639f, 0.051695f, -0.093209f, -0.204138f, 0.186919f, 0.030439f, -0.173412f, 0.238386f, -0.092120f, 0.050769f, -0.183393f, -0.067594f, 0.088911f, -0.182666f, 0.070021f, -0.057043f, 0.034554f, 0.039453f, 0.012714f, 0.141308f, 0.199800f, 0.052784f, -0.130163f, 0.015131f, 0.025522f, -0.132777f, -0.082623f, 0.089349f, 0.157293f, -0.089993f, 0.158830f, -0.128591f, -0.184079f, -0.186478f, -0.086415f, -0.105387f, -0.124750f, 0.002837f, -0.021698f, 0.135447f, 0.078693f, 0.462038f, -0.025628f, -0.038102f, -0.041691f, -0.258555f, -0.219908f, 0.058411f, 0.191429f, -0.309273f, 0.000994f, -0.199378f, 0.034647f, -0.111127f, -0.232049f, 0.055663f, -0.123343f, -0.040031f, -0.326922f, -0.054037f, -0.190611f, -0.249673f, -0.004931f, -0.310579f, -0.146135f, 0.045865f, -0.341544f, -0.323511f, -0.306169f, -0.128207f, -0.135665f, -0.368507f, 0.126250f, -0.401613f, -0.045558f, -0.042164f, -0.168819f, -0.113110f, -0.182767f, 0.013285f, -0.271014f, -0.184259f, -0.265861f, -0.205247f, -0.468683f, -0.424801f, -0.077016f, -0.352264f, -0.002801f, -0.101254f, -0.221046f, -0.012576f, -0.042249f, -0.295325f, -0.235559f, -0.231280f, -0.008154f, -0.021995f, -0.274930f, -0.206207f, -0.328094f, -0.167592f, -0.245103f, -0.318727f, -0.339780f, 0.068606f, -0.004349f, -0.339510f, -0.005627f, -0.078943f, 0.128292f, -0.060733f, -0.012482f, 0.191043f, -0.179329f, -0.108735f, -0.009280f, 0.005230f, -0.214848f, -0.103480f, 0.212622f, 0.209208f, 0.042173f, -0.108466f, -0.149456f, -0.089393f, 0.106575f, 0.047850f, 0.021111f, 0.014795f, -0.151885f, 0.193658f, 0.032889f, 0.011267f, -0.165129f, -0.145151f, -0.225726f, -0.075474f, -0.130087f, -0.057652f, 0.009268f, 0.185802f, -0.076474f, -0.125088f, 0.018885f, -0.122107f, -0.050305f, 0.031934f, 0.197295f, -0.134554f, -0.153678f, -0.080629f, 0.170332f, 0.189279f, 0.133019f, -0.122743f, -0.194976f, -0.042482f, 0.023613f, -0.164322f, 0.006396f, -0.067514f, -0.014312f, 0.099391f, 0.065583f, 0.059345f, 0.016072f, -0.030425f, 0.127910f, 0.014569f, 0.072539f, 0.068568f, -0.166436f, -0.022024f, -0.150718f, -0.161635f, 0.015502f, -0.094511f, -0.064976f, 0.238099f, -0.058746f, 0.020233f, 0.069331f, -0.210680f, -0.115032f, -0.070005f, 0.252891f, 0.035453f, -0.064668f, -0.035571f, -0.046731f, -0.339957f, -0.173481f, -0.121843f, 0.021046f, -0.033120f, 0.104528f, -0.012980f, -0.105229f, 0.190756f, -0.247738f, -0.077263f, -0.334830f, -0.240956f, 0.129084f, 0.060133f, -0.299845f, 0.177469f, -0.401269f, -0.057823f, -0.172094f, 0.130759f, -0.253600f, -0.023721f, -0.067157f, -0.017463f, 0.069757f, 0.086512f, 0.156740f, 0.028251f, -0.183538f, 0.301346f, 0.083244f, 0.206219f, -0.006075f, 0.255958f, 0.161690f, 0.052089f, -0.311422f, -0.192471f, 0.131943f, -0.174594f, 0.104953f, 